-8.298514783382415771e-02
4.724888876080513000e-02
4.502354189753532410e-02
-5.803685635328292847e-02
1.323699355125427246e-01
-1.427519917488098145e-01
1.062783133238554001e-02
1.674688421189785004e-02
1.501813996583223343e-02
-8.910269290208816528e-02
-4.792310297489166260e-02
-1.447347551584243774e-01
3.046571835875511169e-02
1.979948878288269043e-01
-5.236054584383964539e-02
6.544649600982666016e-02
7.513739168643951416e-02
9.470529109239578247e-02
-9.285354614257812500e-02
-7.784525305032730103e-02
4.905094578862190247e-02
-3.131406754255294800e-02
-4.894965793937444687e-03
-7.229284197092056274e-02
-5.668412148952484131e-02
1.589874625205993652e-01
-2.211792394518852234e-02
-3.644192591309547424e-02
3.557861223816871643e-02
-1.176634952425956726e-01
9.319572895765304565e-02
9.687317907810211182e-02
1.033699586987495422e-01
-9.671951085329055786e-02
-3.493602946400642395e-02
-3.429139405488967896e-02
-4.527015611529350281e-03
-1.985353976488113403e-02
-1.438276022672653198e-01
6.209366768598556519e-02
6.150609627366065979e-02
5.127575993537902832e-02
-5.715578421950340271e-02
-2.689090073108673096e-01
2.319268137216567993e-02
1.562509238719940186e-01
1.598140597343444824e-01
9.499976783990859985e-02
2.028835751116275787e-02
6.004975363612174988e-02
1.053931713104248047e-01
3.704738244414329529e-02
3.986952453851699829e-02
6.299602985382080078e-02
-4.706771578639745712e-03
-1.007212325930595398e-01
1.128953695297241211e-01
-3.937063273042440414e-03
7.608325034379959106e-02
-1.095061823725700378e-01
-7.652470469474792480e-02
-2.438168227672576904e-02
-2.204220741987228394e-02
-1.032598242163658142e-01
-8.487796783447265625e-02
-3.330469131469726562e-02
-8.015638589859008789e-02
1.093463450670242310e-01
-7.369445264339447021e-02
-7.506287097930908203e-02
2.839773520827293396e-02
-5.091314390301704407e-02
1.871976703405380249e-01
-1.441645063459873199e-02
1.554135978221893311e-02
-2.219812385737895966e-02
-2.231001108884811401e-02
-1.977468840777873993e-03
-2.213911898434162140e-02
-1.046869456768035889e-01
-1.267407387495040894e-01
-2.892857603728771210e-02
1.820972859859466553e-01
-6.865321844816207886e-02
5.531421676278114319e-02
3.695501759648323059e-02
5.460502579808235168e-02
1.557060331106185913e-01
3.994025755673646927e-03
-1.887402683496475220e-02
9.092995314858853817e-04
-5.304789915680885315e-02
1.834913343191146851e-01
-1.136841997504234314e-01
1.654888689517974854e-01
-1.499557495117187500e-01
-2.279421128332614899e-02
3.748183697462081909e-02
-9.097429364919662476e-02
-1.186034921556711197e-02
-7.496684789657592773e-02
1.031847223639488220e-01
1.311205923557281494e-01
-1.246484648436307907e-02
-3.708824515342712402e-02
7.756097614765167236e-02
6.176690571010112762e-03
7.274988573044538498e-03
-1.852312833070755005e-01
-3.269448503851890564e-02
1.809038668870925903e-01
-2.903080731630325317e-02
-9.507758170366287231e-02
-3.790939971804618835e-02
-1.908679902553558350e-01
1.591226011514663696e-01
3.388598561286926270e-02
1.560250110924243927e-02
8.165076375007629395e-02
-2.801947668194770813e-02
1.964671351015567780e-02
1.446132063865661621e-01
-1.829046308994293213e-01
1.891352534294128418e-01
-1.420866325497627258e-02
-7.360340654850006104e-02
2.731065265834331512e-02
1.148487031459808350e-01
-9.994965791702270508e-02
-7.596075534820556641e-02
1.227466240525245667e-01
5.791220813989639282e-02
1.056248769164085388e-01
1.753737777471542358e-02
-1.235913336277008057e-01
-1.096554994583129883e-01
-1.361598223447799683e-01
1.261333096772432327e-02
-1.309472471475601196e-01
-1.549730747938156128e-01
-6.029483303427696228e-02
2.849917486310005188e-02
-7.543956488370895386e-02
8.940503746271133423e-02
1.046786382794380188e-01
-1.034735050052404404e-02
7.627909630537033081e-02
6.853389739990234375e-02
-2.643118798732757568e-02
6.758689996786415577e-04
7.963832467794418335e-02
-2.512220852077007294e-02
-2.270065434277057648e-02
-7.679866254329681396e-02
-7.813137024641036987e-02
5.941918492317199707e-02
1.000620517879724503e-02
1.039993166923522949e-01
-9.822572022676467896e-02
1.058249175548553467e-02
3.280717879533767700e-02
1.535581424832344055e-02
-1.028646156191825867e-02
-1.304210871458053589e-01
4.731144756078720093e-02
8.648573607206344604e-02
1.367774307727813721e-01
1.262340247631072998e-01
-1.983195543289184570e-01
-7.879434525966644287e-02
-3.240266442298889160e-02
2.762135351076722145e-03
-2.257837040815502405e-04
1.812557280063629150e-01
8.275913447141647339e-02
-1.472545415163040161e-02
5.534917116165161133e-02
-3.517102450132369995e-02
3.216343745589256287e-02
-2.044960297644138336e-02
8.775754272937774658e-02
1.621005684137344360e-01
9.212665259838104248e-02
1.351477354764938354e-01
1.351952552795410156e-01
-9.448636323213577271e-02
2.093403600156307220e-02
-3.181201592087745667e-02
-1.237614750862121582e-01
8.162980526685714722e-02
4.881091415882110596e-03
1.445337533950805664e-01
-1.136370822787284851e-01
4.050362482666969299e-02
6.995094567537307739e-02
-1.424479782581329346e-01
9.566033631563186646e-02
1.595461815595626831e-01
-1.582670956850051880e-01
9.977431036531925201e-03
8.960017561912536621e-02
-1.424292940646409988e-02
9.222917258739471436e-02
-5.301003903150558472e-02
-4.502045363187789917e-02
9.699957817792892456e-02
7.510480284690856934e-02
7.901137322187423706e-02
-2.999061718583106995e-02
1.425537839531898499e-02
1.015008389949798584e-01
-9.998201578855514526e-02
9.561895579099655151e-02
-5.404132977128028870e-02
-8.386031538248062134e-02
7.665392011404037476e-02
-1.424591690301895142e-01
-2.126400545239448547e-02
-1.626741439104080200e-01
3.154106810688972473e-02
1.216035410761833191e-01
9.530128538608551025e-02
-1.341680288314819336e-01
5.672864988446235657e-02
-5.445213988423347473e-02
-1.186778247356414795e-01
-2.177251875400543213e-01
8.044230192899703979e-02
-5.302633717656135559e-02
1.222172901034355164e-01
-2.436737529933452606e-03
3.691968694329261780e-02
-3.080109693109989166e-02
4.776791110634803772e-02
3.496852517127990723e-02
1.157828867435455322e-01
-1.044291723519563675e-02
-4.808657988905906677e-02
4.008147120475769043e-02
-8.706633001565933228e-03
-1.390716880559921265e-01
-1.110547780990600586e-01
2.322712354362010956e-02
6.786272674798965454e-02
-1.843237280845642090e-01
5.787226557731628418e-02
8.833881467580795288e-02
3.227534517645835876e-02
-7.641041278839111328e-02
7.079531997442245483e-02
7.262843102216720581e-02
3.613066673278808594e-02
2.127140611410140991e-01
2.595917694270610809e-02
6.537462025880813599e-02
-1.719195991754531860e-01
-1.186904087662696838e-01
-4.075155779719352722e-02
-1.154422685503959656e-01
2.387867681682109833e-02
-2.697977982461452484e-02
-1.660340582020580769e-03
5.039301887154579163e-02
-9.734832495450973511e-02
-1.030050218105316162e-02
-1.102758273482322693e-01
-6.803678721189498901e-02
-7.454837858676910400e-02
-1.853314787149429321e-02
3.700396791100502014e-02
6.659071892499923706e-03
-5.602394044399261475e-02
-5.698925256729125977e-02
-1.191279590129852295e-01
2.145047485828399658e-02
-7.146754860877990723e-02
7.815102487802505493e-02
8.374624885618686676e-03
-8.337529003620147705e-02
-8.235192298889160156e-02
-1.037386506795883179e-01
1.176206991076469421e-01
2.023948542773723602e-02
1.332618445158004761e-01
-2.298093773424625397e-02
-6.931013893336057663e-03
-8.416987955570220947e-02
2.076303064823150635e-01
-1.003647893667221069e-01
-3.373027220368385315e-02
8.193103969097137451e-02
-5.194374360144138336e-03
-1.099514365196228027e-01
1.592375189065933228e-01
3.228610381484031677e-02
4.452629759907722473e-02
-6.839986145496368408e-02
-6.444309838116168976e-03
1.208441406488418579e-01
4.901595041155815125e-02
-8.956629037857055664e-02
-1.102591454982757568e-01
8.069385588169097900e-02
-5.781924724578857422e-02
2.899761311709880829e-02
4.873431101441383362e-02
4.038034006953239441e-02
-4.194109886884689331e-02
-5.826593190431594849e-02
-1.808293312788009644e-01
-3.401543572545051575e-02
-1.221740990877151489e-02
4.975339770317077637e-02
7.304839044809341431e-02
1.223511397838592529e-01
1.065741032361984253e-01
-9.502288699150085449e-02
-2.596292495727539062e-01
2.331697791814804077e-01
6.718936562538146973e-02
6.276314705610275269e-02
-1.719993725419044495e-02
-2.603595145046710968e-02
-1.831120811402797699e-03
3.824980929493904114e-02
1.363259851932525635e-01
1.536934077739715576e-01
-1.312900632619857788e-01
-2.244396600872278214e-03
8.981619775295257568e-02
4.653092473745346069e-02
-3.777831047773361206e-02
6.846350431442260742e-02
-8.120660483837127686e-02
8.996958285570144653e-02
1.508112847805023193e-01
4.513747990131378174e-02
-7.403674721717834473e-02
4.052770882844924927e-02
3.994065895676612854e-02
3.246725723147392273e-02
-1.127995550632476807e-01
1.364365369081497192e-01
1.446032673120498657e-01
-1.433214843273162842e-01
-1.405312716960906982e-01
-4.661630466580390930e-02
-5.737677216529846191e-02
-1.919098757207393646e-02
5.545516684651374817e-02
-9.056535363197326660e-02
6.805863976478576660e-02
-1.485958546400070190e-01
-8.796827495098114014e-02
-2.904898114502429962e-02
-5.006906390190124512e-02
-3.017153777182102203e-02
-3.249291330575942993e-02
-7.048293948173522949e-02
-1.154033169150352478e-01
-6.906981021165847778e-02
-6.099835410714149475e-02
-2.640974894165992737e-02
-1.298804581165313721e-01
-1.702919900417327881e-01
2.197459340095520020e-02
-2.652970375493168831e-03
1.068353094160556793e-02
6.687242537736892700e-02
-1.463736891746520996e-01
-4.134259000420570374e-02
-8.760926127433776855e-02
-7.063783705234527588e-02
2.717558294534683228e-03
-2.966232411563396454e-02
9.145133197307586670e-02
-4.024983197450637817e-02
-9.678468853235244751e-02
-5.994493141770362854e-02
-6.936853379011154175e-02
-4.417580086737871170e-03
3.208446130156517029e-02
-1.033317968249320984e-01
-4.138449206948280334e-02
5.558348074555397034e-02
3.298544883728027344e-02
-1.905270367860794067e-01
2.264793775975704193e-02
1.292825043201446533e-01
-2.007292211055755615e-02
8.802697807550430298e-02
-2.014864236116409302e-02
7.308939844369888306e-02
-1.551834493875503540e-01
1.071847602725028992e-01
-8.153838664293289185e-02
-7.879911363124847412e-02
-2.629809640347957611e-02
3.794981539249420166e-02
8.656148612499237061e-02
5.776965618133544922e-02
3.719303384423255920e-02
1.911555528640747070e-01
4.724596813321113586e-02
-2.589972130954265594e-02
5.454747006297111511e-03
-9.849258512258529663e-02
3.884157165884971619e-02
-2.444632723927497864e-02
-1.131649408489465714e-02
-1.712374240159988403e-01
-6.733048707246780396e-02
-1.152097806334495544e-02
-3.731098771095275879e-02
5.957572162151336670e-02
3.929633274674415588e-02
7.230525463819503784e-02
7.664678990840911865e-02
-7.132933288812637329e-02
-1.994690299034118652e-01
-8.075384795665740967e-02
1.215136796236038208e-01
1.585012376308441162e-01
-4.064634814858436584e-02
3.556868433952331543e-02
-6.137530133128166199e-02
-6.314999610185623169e-02
-1.546472893096506596e-03
-1.396472603082656860e-01
-4.777257516980171204e-02
2.892483212053775787e-02
-4.862324520945549011e-02
1.270869672298431396e-01
-1.197175383567810059e-01
1.914383023977279663e-01
-2.063666470348834991e-02
9.445365518331527710e-02
3.826074302196502686e-02
2.341430075466632843e-02
1.233877241611480713e-01
-7.838305830955505371e-02
8.871082216501235962e-02
2.070504939183592796e-03
-3.676619753241539001e-02
2.005891874432563782e-03
1.137243360280990601e-01
1.477996557950973511e-01
-3.356278687715530396e-02
5.309562757611274719e-02
1.986591815948486328e-01
7.179869338870048523e-03
-2.519142441451549530e-02
-1.210843473672866821e-01
4.254370555281639099e-02
-6.799590773880481720e-03
1.508909091353416443e-02
2.925299666821956635e-02
7.610796950757503510e-03
2.337572164833545685e-02
4.636980965733528137e-02
2.436734363436698914e-02
-1.520416140556335449e-01
-1.470675505697727203e-02
-3.220110386610031128e-02
-1.645846962928771973e-01
-2.981936186552047729e-02
-1.088711544871330261e-01
7.328445464372634888e-02
6.872816383838653564e-02
-3.684541955590248108e-02
5.642476305365562439e-02
-8.552531152963638306e-02
5.096957087516784668e-02
-7.060611993074417114e-02
-7.709246128797531128e-03
2.466018497943878174e-01
-4.846104234457015991e-02
1.595736891031265259e-01
3.454617224633693695e-03
-1.212166622281074524e-01
-2.116201519966125488e-01
-9.278286248445510864e-02
-9.999121725559234619e-02
-2.863718383014202118e-02
-1.787509955465793610e-02
1.348382141441106796e-02
-1.048269346356391907e-01
-9.711944498121738434e-03
7.898959517478942871e-02
-1.313162297010421753e-01
-1.816029101610183716e-02
1.494419481605291367e-02
4.797593876719474792e-02
4.303314536809921265e-02
-8.369481563568115234e-02
3.012405894696712494e-02
1.757838875055313110e-01
2.846883237361907959e-02
3.892019763588905334e-02
9.028195403516292572e-03
