-3.544427081942558289e-02 -2.751640602946281433e-02 -5.963160656392574310e-04 4.870531335473060608e-02 -1.010976731777191162e-01 -1.410429459065198898e-02 4.760449752211570740e-02 -1.077521406114101410e-02 -1.069086566567420959e-01 -9.371943771839141846e-03 -1.321145892143249512e-01 1.233058273792266846e-01 -1.430565863847732544e-01 8.714708499610424042e-03 -1.507593411952257156e-02 -5.979012325406074524e-02 -1.958841085433959961e-02 2.492704242467880249e-02 -1.235409155488014221e-01 3.903816267848014832e-02 3.108530119061470032e-02 3.535836189985275269e-02 -7.430946081876754761e-02 -2.483697794377803802e-02 5.976289883255958557e-02 -6.583242863416671753e-02 8.084800094366073608e-02 3.747986257076263428e-02 2.023562975227832794e-02 -4.787509143352508545e-02 -2.185727655887603760e-02 1.957979612052440643e-02 -1.469471771270036697e-02 5.424971878528594971e-02 7.041122764348983765e-02 -3.783226385712623596e-02 -2.253065072000026703e-02 -1.300615668296813965e-01 3.745019063353538513e-02 8.308615535497665405e-02 -1.207113545387983322e-02 4.125713312532752752e-04 3.073103912174701691e-02 -7.477920502424240112e-02 6.912308931350708008e-02 -2.690479718148708344e-02 -1.330273970961570740e-02 -4.226830601692199707e-02 -3.714707121253013611e-02 -1.528764981776475906e-02 -9.630018472671508789e-02 -6.503055989742279053e-02 -2.968357130885124207e-02 2.954853512346744537e-02 1.128058508038520813e-02 -8.272226899862289429e-02 -4.563261289149522781e-03 -3.630808740854263306e-02 -6.839434057474136353e-02 6.770241074264049530e-03 -2.677886001765727997e-02 4.117017239332199097e-02 -9.178166836500167847e-02 1.371760293841362000e-02 -7.370208948850631714e-02 -3.477539494633674622e-02 -5.234876647591590881e-02 -2.556452713906764984e-02 -7.509832829236984253e-02 -1.679179519414901733e-01 -1.024682912975549698e-02 -9.080430120229721069e-02 -6.694769859313964844e-02 3.945164754986763000e-02 -8.971794694662094116e-02 -5.250876024365425110e-02 -5.097869783639907837e-02 5.322173610329627991e-02 4.197533056139945984e-02 -3.566302359104156494e-02 2.801124192774295807e-02 -1.085286810994148254e-01 1.819449849426746368e-02 -5.133804306387901306e-02 8.224894292652606964e-03 -1.210155189037322998e-01 -7.089402526617050171e-02 3.226139023900032043e-02 2.691525407135486603e-02 -3.308074921369552612e-02 -7.080656476318836212e-03 -1.758868694305419922e-01 -1.527075842022895813e-02 -3.378231450915336609e-02 -1.172508485615253448e-02 -1.043103411793708801e-01 -1.260692067444324493e-02 1.125605478882789612e-01 -3.244306519627571106e-02 -2.653006277978420258e-02 -1.028623208403587341e-01 2.833303809165954590e-02 7.813275791704654694e-03 -1.719387248158454895e-02 3.992692008614540100e-02 1.712008938193321228e-02 2.035703882575035095e-02 -2.850284567102789879e-03 -6.046586111187934875e-02 -3.061366453766822815e-02 5.843541026115417480e-02 6.051095575094223022e-02 -6.484207510948181152e-02 -9.071587584912776947e-03 4.569245129823684692e-02 -1.725666597485542297e-02 -3.584354370832443237e-02 -3.981964662671089172e-02 -9.139981120824813843e-02 -6.756436824798583984e-02 5.133951082825660706e-02 7.561480998992919922e-02 -3.830390423536300659e-02 -3.670363500714302063e-02 -9.111313521862030029e-02 -1.583816111087799072e-02 4.304656758904457092e-02 -6.353102624416351318e-02 4.607771337032318115e-02 -2.846605889499187469e-02 -8.941947668790817261e-02 2.791658230125904083e-02 -2.844631113111972809e-02 -3.748301789164543152e-02 -5.001650378108024597e-02 -5.688867717981338501e-02 -9.532490372657775879e-02 -1.758465766906738281e-01 -6.413909047842025757e-02 -9.891073405742645264e-02 -1.330983359366655350e-03 1.253721863031387329e-01 2.407765574753284454e-02 -1.261576861143112183e-01 -1.002739295363426208e-01 -4.691377654671669006e-02 -7.202860713005065918e-02 -3.851574659347534180e-02 3.649218473583459854e-03 3.107330063357949257e-03 -7.797154039144515991e-02 6.139184534549713135e-02 -1.988367876037955284e-04 -7.220659404993057251e-02 -2.901330823078751564e-03 -2.130431830883026123e-01 -3.934544697403907776e-02 6.777665764093399048e-02 6.926601752638816833e-03 -1.799328811466693878e-02 -2.732310444116592407e-02 6.416606903076171875e-02 1.222459226846694946e-02 -7.819673977792263031e-03 -1.752280071377754211e-02 -8.595406264066696167e-02 7.745119743049144745e-03 2.393915131688117981e-02 2.731421962380409241e-02 1.475971285253763199e-02 -9.215116500854492188e-02 -3.664074093103408813e-02 3.120089508593082428e-02 1.000861078500747681e-02 -1.485589593648910522e-01 -7.709635887295007706e-03 3.970823250710964203e-03 2.316977083683013916e-02 1.344316266477108002e-02 7.824598997831344604e-02 -3.679315373301506042e-02 -2.534897811710834503e-02 -7.385516166687011719e-02 2.277968265116214752e-02 4.715208336710929871e-02 4.814539849758148193e-02 -9.865901432931423187e-03 6.766791641712188721e-02 -2.386058680713176727e-02 -5.394167825579643250e-02 -8.846656978130340576e-02 -2.315690182149410248e-02 -1.215832978487014771e-01 -2.915346994996070862e-02 2.930497936904430389e-02 -9.134301915764808655e-03 -6.129438057541847229e-02 4.361199960112571716e-02 4.106080159544944763e-02 5.276413261890411377e-02 -3.207098320126533508e-02 -2.370021492242813110e-02 -9.998165071010589600e-02 3.460638970136642456e-02 5.299496278166770935e-02 -5.401482433080673218e-02 6.273477524518966675e-02 -1.576223410665988922e-02 -5.842540785670280457e-02 1.165970601141452789e-02 -6.548174470663070679e-02 -2.445026673376560211e-02 -2.948967367410659790e-02 -1.044458076357841492e-01 -1.317912936210632324e-01 -1.330016702413558960e-01 -1.716672815382480621e-02 -1.025240272283554077e-01 -5.328226462006568909e-02 -7.352107786573469639e-04 -2.213944308459758759e-02 5.617161281406879425e-03 -3.247954882681369781e-03 2.015733532607555389e-02 -5.722976103425025940e-02 -9.300866723060607910e-02 6.189161911606788635e-03 1.930628903210163116e-03 -5.461962893605232239e-02 6.597177707590162754e-04 -9.793490171432495117e-02 -1.106169968843460083e-01 -1.466582566499710083e-01 -2.211099956184625626e-03 -7.048024237155914307e-02 1.111318618059158325e-01 -2.345823915675282478e-03 7.728334050625562668e-03 -1.369818300008773804e-01 3.722647577524185181e-02 -3.242968395352363586e-02 8.289589895866811275e-04 2.272829599678516388e-02 -5.934944748878479004e-02 -9.327459335327148438e-02 -1.135089397430419922e-01 2.159732952713966370e-02 -4.937838390469551086e-02 -1.273231655359268188e-01 1.264463961124420166e-01 -1.390480846166610718e-01 -6.145052984356880188e-02 -1.305542048066854477e-02 2.305458113551139832e-02 -5.150597542524337769e-02 -1.224050372838973999e-01 1.073639839887619019e-02 -9.028807282447814941e-02 -1.317759510129690170e-02 1.399829704314470291e-02 2.710335887968540192e-02 -5.596977192908525467e-03 -1.143123209476470947e-01 6.065766513347625732e-02 -1.237353589385747910e-02 -4.846707452088594437e-03 4.291553050279617310e-02 -9.868307411670684814e-02 -4.256187006831169128e-02 -5.215761810541152954e-02 -1.470450125634670258e-02 7.060340140014886856e-03 1.131573393940925598e-01 -3.284551948308944702e-02 -1.263920404016971588e-02 -1.806418225169181824e-02 3.849775344133377075e-02 -1.277842279523611069e-02 -1.048627942800521851e-01 5.985303223133087158e-02 -6.475229561328887939e-02 -4.671207442879676819e-02 5.241488665342330933e-02 -4.514862596988677979e-02 6.006535515189170837e-02 -1.763364225625991821e-01 7.134047336876392365e-03 4.963918402791023254e-02 -3.076692298054695129e-02 -6.151569262146949768e-02 -2.787641808390617371e-02 3.980335593223571777e-02 -3.114581480622291565e-02 -1.261885743588209152e-02 -4.781661182641983032e-02 1.031249538064002991e-01 -1.469459682703018188e-01 -8.480820804834365845e-02 -4.962967336177825928e-02 -2.975155226886272430e-02 3.033494576811790466e-02 -1.136675942689180374e-02 -6.644716858863830566e-02 9.332177229225635529e-03 7.055109739303588867e-02 6.218606978654861450e-02 -3.877347335219383240e-02 -2.928412519395351410e-02 -1.281527727842330933e-01 -7.760052382946014404e-02 -2.642043530941009521e-01 4.376904573291540146e-03 -4.881940037012100220e-02 4.669243469834327698e-02 -4.907806590199470520e-02 6.264639645814895630e-02 4.308103770017623901e-02 5.592325329780578613e-02 -1.012955382466316223e-01 -3.024712391197681427e-02 2.189437672495841980e-02 -4.073992371559143066e-02 6.978550925850868225e-03 -4.454908519983291626e-02 -9.013307094573974609e-02 1.870980672538280487e-02 -1.580429524183273315e-01 -2.289574779570102692e-02 -6.019299477338790894e-02 2.121890708804130554e-02 -6.436702609062194824e-02 2.090690843760967255e-02 -1.850425079464912415e-02 -2.601451799273490906e-02 1.506393216550350189e-02 2.008506655693054199e-02 -8.560380339622497559e-02 4.445591568946838379e-02 6.438569724559783936e-02 1.738915592432022095e-02 1.810117624700069427e-02 -1.002506166696548462e-01 6.816542893648147583e-02 -6.711368449032306671e-03 5.369053035974502563e-02 -7.772295922040939331e-02 1.466232910752296448e-02 1.576513797044754028e-02 -1.680694334208965302e-02 1.689312234520912170e-02 1.026513893157243729e-02 8.990509808063507080e-02 4.052337899338454008e-04 -1.362346112728118896e-01 -1.300979107618331909e-01 -1.494117081165313721e-01 2.966620028018951416e-02 -7.298297248780727386e-03 -7.767585664987564087e-02 7.775964587926864624e-02 -2.646439708769321442e-02 -1.646941341459751129e-02 -2.371932379901409149e-02 -7.996322214603424072e-02 9.428120404481887817e-02 -7.755224406719207764e-02 -6.057240441441535950e-02 -8.818155527114868164e-02 -7.397977262735366821e-02 4.280568566173315048e-03 3.712859377264976501e-02 -1.331665813922882080e-01 5.315840989351272583e-02 -3.149552643299102783e-02 -4.686763975769281387e-03 -7.399627566337585449e-02 1.358133107423782349e-01 -2.381453067064285278e-01 3.698046505451202393e-02 5.403684452176094055e-02 5.955667793750762939e-02 -7.004611194133758545e-02 -1.139396056532859802e-01 -9.921202808618545532e-02 8.007616549730300903e-02 7.593498378992080688e-02 3.682570904493331909e-02 1.377870142459869385e-01 -3.665451193228363991e-03 -8.330460637807846069e-02 3.751161694526672363e-02 -3.130996227264404297e-02 -8.800262957811355591e-02 -1.088619083166122437e-01 -1.976142078638076782e-02 3.216350078582763672e-02 -6.120987981557846069e-02 -3.859495278447866440e-03 -6.872154027223587036e-02 8.896590210497379303e-03 -2.640242502093315125e-02 -1.624575406312942505e-01 -1.948398724198341370e-02 -1.548985391855239868e-02 5.777413025498390198e-02 1.937051862478256226e-02 5.096379667520523071e-02 4.374378919601440430e-02 -2.625190280377864838e-02 4.099165648221969604e-02 -6.983002275228500366e-02 -5.064597819000482559e-03 -3.494974458590149879e-03 -4.721089266240596771e-03 -1.366573758423328400e-02 -4.665387049317359924e-02 -1.662064939737319946e-01 -1.706998497247695923e-01 -3.313467279076576233e-02 -1.133104786276817322e-01 5.684239417314529419e-02 8.261602371931076050e-02 -9.389417618513107300e-02 5.850295722484588623e-02 -5.518727377057075500e-02 3.371663019061088562e-02 -9.610707871615886688e-03 5.936599522829055786e-02 -7.592551410198211670e-02 -4.745651781558990479e-02 -1.986286835744976997e-03 4.774725809693336487e-02 3.630882129073143005e-02 -1.631904952228069305e-02 -9.304925799369812012e-02 -8.561230264604091644e-03 -8.083846420049667358e-02 4.679266363382339478e-02 9.399539977312088013e-02 3.548010066151618958e-02 -1.267017722129821777e-01 -6.420938670635223389e-02 6.725613772869110107e-02 -1.234951838850975037e-01 -5.178603157401084900e-02 9.148561954498291016e-02 -9.873800724744796753e-02 3.374770656228065491e-02 1.387524418532848358e-02 -1.369543224573135376e-01 3.930474445223808289e-02 -1.469783633947372437e-01 1.961098983883857727e-02 -1.614728756248950958e-02 6.003728136420249939e-02 5.763331428170204163e-03 -5.406837910413742065e-02 4.197049140930175781e-02 -1.278954595327377319e-01 5.101150646805763245e-02 -1.019028946757316589e-01 -1.564072072505950928e-01 3.720119968056678772e-02 -6.219459325075149536e-02 1.063756924122571945e-02 -8.107154816389083862e-02 -5.911544710397720337e-02 -1.289728730916976929e-01 -5.431230738759040833e-02 -3.931470587849617004e-02 -2.071103453636169434e-02 -2.532842569053173065e-02 2.180534042418003082e-02 -1.998983919620513916e-01 -1.880616508424282074e-02 -5.176515504717826843e-02 -7.909063249826431274e-02 -1.099515855312347412e-01 -1.128421202301979065e-01 3.417801856994628906e-02 -1.463300287723541260e-01 6.370583921670913696e-02 4.260957241058349609e-02 -1.044488628394901752e-03 -1.707778275012969971e-01 4.275934398174285889e-02 2.472319453954696655e-02 -1.106605678796768188e-01 2.024812251329421997e-02 -4.832705855369567871e-02 6.953051779419183731e-03 4.355133324861526489e-02 -1.721847355365753174e-01 1.221894547343254089e-01 -2.618098072707653046e-02 8.664328925078734756e-05 5.639956519007682800e-02 -7.091445475816726685e-02 -5.517504177987575531e-03 -3.488759696483612061e-02
1.495945081114768982e-02 2.347535640001296997e-02 -1.458645462989807129e-01 -7.422899454832077026e-02 -1.326797157526016235e-01 -2.998214028775691986e-02 4.976183176040649414e-02 2.582103572785854340e-02 -1.546072401106357574e-02 8.149857632815837860e-03 4.105359315872192383e-02 1.011666841804981232e-02 -1.269660592079162598e-01 -1.671338267624378204e-02 2.010449171066284180e-01 2.664557844400405884e-02 2.099706605076789856e-02 -2.388371676206588745e-01 -6.060372292995452881e-02 -3.519676253199577332e-02 -9.449920803308486938e-02 -5.034889653325080872e-02 -8.874202147126197815e-03 -2.439874224364757538e-02 -1.249994114041328430e-01 5.825429037213325500e-02 -8.797319233417510986e-02 -3.443431109189987183e-02 -6.553756445646286011e-02 -1.965201459825038910e-02 -6.203797087073326111e-02 -4.152690060436725616e-03 3.492071479558944702e-02 -2.416398935019969940e-02 -2.851803041994571686e-02 3.784959763288497925e-02 -2.387253008782863617e-02 5.895781517028808594e-02 3.790335357189178467e-02 -1.992433369159698486e-01 -1.342808734625577927e-02 6.113655865192413330e-02 -2.753715589642524719e-02 8.670409023761749268e-02 -6.962347775697708130e-02 -7.746970281004905701e-03 1.727181971073150635e-01 -1.355801429599523544e-02 3.537089005112648010e-02 -4.738968238234519958e-02 -6.730607897043228149e-02 2.767489105463027954e-02 -1.596209034323692322e-02 6.862503290176391602e-02 -2.400626614689826965e-02 -3.911390900611877441e-03 -6.507639307528734207e-03 1.176903955638408661e-02 8.560671657323837280e-02 -3.651497513055801392e-02 -9.372075088322162628e-03 2.369405701756477356e-02 -2.983064576983451843e-02 -2.583800069987773895e-02 -7.721981406211853027e-02 -6.279636919498443604e-02 -1.233518868684768677e-01 -5.305157601833343506e-02 7.156475633382797241e-02 2.618250064551830292e-02 -8.587674796581268311e-02 -5.203876644372940063e-02 -6.607877463102340698e-02 3.935093432664871216e-02 -6.762646138668060303e-02 3.744334354996681213e-02 -5.882068350911140442e-02 -4.501542821526527405e-02 1.822369545698165894e-02 -7.995760533958673477e-04 6.023222953081130981e-02 -4.247688129544258118e-02 -3.183333948254585266e-02 -1.036401372402906418e-02 4.095754027366638184e-02 4.826067760586738586e-02 3.136938437819480896e-02 -2.810403145849704742e-02 -2.789050154387950897e-02 7.229837775230407715e-02 2.743561565876007080e-02 -8.477391302585601807e-02 2.790599316358566284e-02 1.098332479596138000e-01 -7.648881524801254272e-02 1.069626435637474060e-01 1.655096560716629028e-02 -9.110569208860397339e-02 -2.615428157150745392e-02 5.809290334582328796e-02 2.753058075904846191e-02 -6.096817925572395325e-02 -5.183711647987365723e-03 -6.240116432309150696e-02 -7.512540370225906372e-02 5.771141499280929565e-02 -2.163262851536273956e-02 5.502894520759582520e-02 6.100551690906286240e-03 -4.991608858108520508e-02 -4.553801845759153366e-03 1.463220221921801567e-03 5.578322708606719971e-02 -4.533796757459640503e-02 -8.009657263755798340e-02 -5.622045323252677917e-02 -1.382509432733058929e-02 -1.522663887590169907e-02 -9.631337970495223999e-02 4.461225494742393494e-02 -6.475979834794998169e-02 -7.161865383386611938e-02 -9.453623741865158081e-02 2.546531893312931061e-02 -3.493019938468933105e-02 -7.648906856775283813e-02 -1.546121435239911079e-03 1.262387186288833618e-01 -1.178119778633117676e-01 8.103417605161666870e-02 -6.258057057857513428e-02 1.226222813129425049e-01 1.827442203648388386e-03 -7.489640265703201294e-02 -2.582066692411899567e-02 -5.343141499906778336e-03 4.892159253358840942e-02 -7.708194106817245483e-02 -5.098807811737060547e-02 -9.779779613018035889e-02 1.194595396518707275e-01 5.330812651664018631e-03 5.127592012286186218e-03 -6.197809055447578430e-02 -2.911247871816158295e-02 3.351799398660659790e-02 -1.437296438962221146e-02 -3.091990202665328979e-02 -1.823642477393150330e-02 1.359828263521194458e-01 1.917359419167041779e-02 6.219984963536262512e-02 -6.441092118620872498e-03 5.092483013868331909e-03 9.096638299524784088e-03 -5.557147786021232605e-02 -1.561145931482315063e-01 8.037143945693969727e-02 -7.463597506284713745e-02 4.910945147275924683e-02 -1.692243069410324097e-01 -2.767915278673171997e-02 -1.971033811569213867e-01 8.005107194185256958e-02 -7.487000897526741028e-03 -7.654917985200881958e-02 -9.478873759508132935e-02 2.603982761502265930e-02 -5.725536122918128967e-02 -1.442797333002090454e-01 -9.061419218778610229e-02 8.765269815921783447e-02 -6.386102759279310703e-04 -6.168112903833389282e-02 2.801520191133022308e-02 -7.425281405448913574e-02 1.121214032173156738e-02 -5.478572100400924683e-03 -1.316225081682205200e-01 6.774057168513536453e-03 2.991556935012340546e-02 -2.272453159093856812e-02 -1.641543954610824585e-01 -9.899119287729263306e-02 -3.517398983240127563e-02 8.826222270727157593e-03 -1.682469039224088192e-03 -8.345033042132854462e-03 -5.847381427884101868e-02 -4.762006551027297974e-02 8.452111855149269104e-03 -1.065004765987396240e-01 2.955891191959381104e-02 1.287409961223602295e-01 5.950530990958213806e-03 2.670130506157875061e-02 -4.411912057548761368e-03 -7.342970371246337891e-02 -2.550891228020191193e-02 -1.009040325880050659e-02 6.871002167463302612e-02 3.512000292539596558e-02 -2.358007989823818207e-02 -5.186533927917480469e-02 -5.000934936106204987e-03 -4.846462234854698181e-02 -7.338195294141769409e-02 7.663705945014953613e-02 1.036423817276954651e-01 4.274008423089981079e-02 -7.576425559818744659e-03 3.368282457813620567e-03 -7.507838308811187744e-02 4.133607447147369385e-02 -6.003011390566825867e-02 -5.571395903825759888e-02 1.338574886322021484e-01 -1.334943901747465134e-02 1.008659452199935913e-01 -4.583443049341440201e-03 -5.097843706607818604e-02 -1.704644709825515747e-01 2.591761760413646698e-02 8.285926654934883118e-03 -1.652813144028186798e-02 5.584753677248954773e-02 4.271003603935241699e-02 1.872577704489231110e-02 -1.192578524351119995e-01 -9.360572323203086853e-03 3.833869844675064087e-02 8.593018352985382080e-02 -6.274296343326568604e-02 -4.634197801351547241e-02 -2.349667809903621674e-02 6.399294734001159668e-02 -4.501203075051307678e-02 -2.201011031866073608e-01 -1.359713822603225708e-01 -1.253418810665607452e-02 -2.019300758838653564e-01 4.459371045231819153e-02 -6.604349613189697266e-02 -1.034101992845535278e-01 4.264563694596290588e-02 -3.755936771631240845e-02 -2.803032845258712769e-02 -3.778512403368949890e-02 2.956302277743816376e-02 7.609782367944717407e-02 5.596566572785377502e-02 2.131556905806064606e-02 1.583353430032730103e-02 5.237916111946105957e-02 2.985975146293640137e-02 5.448868498206138611e-02 -1.100290939211845398e-01 6.069105118513107300e-03 1.484524924308061600e-02 4.071641713380813599e-02 -1.015840657055377960e-02 -1.166435889899730682e-02 5.435228720307350159e-02 3.860578685998916626e-02 -3.567741438746452332e-02 -2.216107100248336792e-01 6.412420421838760376e-02 1.171190813183784485e-01 3.082032687962055206e-02 -3.739188238978385925e-02 1.691454350948333740e-01 -3.528895601630210876e-02 -2.460078895092010498e-01 9.531345218420028687e-02 -2.305817231535911560e-02 -6.869699805974960327e-02 -7.177545130252838135e-02 1.493404619395732880e-03 1.083391951397061348e-03 -1.953549981117248535e-01 -4.278548434376716614e-02 1.097579747438430786e-01 6.538636237382888794e-02 1.038163751363754272e-01 8.065626770257949829e-02 -2.706585265696048737e-02 1.063948590308427811e-02 -2.936268411576747894e-02 1.335503906011581421e-01 7.688432186841964722e-02 -1.329563185572624207e-02 -1.690453588962554932e-01 3.919068723917007446e-02 4.591923207044601440e-02 3.147638961672782898e-02 -1.570143252611160278e-01 9.167603403329849243e-02 2.210283838212490082e-02 -4.620979353785514832e-02 4.173289984464645386e-02 -1.523374617099761963e-01 -9.721572510898113251e-03 2.981906384229660034e-02 2.957778610289096832e-02 -7.347172498703002930e-02 1.809765771031379700e-02 -5.434958264231681824e-02 1.087827049195766449e-02 9.704256430268287659e-03 -8.111310750246047974e-02 -6.963881850242614746e-02 1.425885409116744995e-01 -6.369365844875574112e-03 -5.705385655164718628e-02 7.290823757648468018e-02 1.259847637265920639e-02 -3.432079404592514038e-02 4.294495284557342529e-02 -8.405800163745880127e-02 1.864782907068729401e-02 1.987830328289419413e-04 -3.404471278190612793e-02 -1.456588413566350937e-02 2.140988130122423172e-03 5.610411614179611206e-02 1.092579774558544159e-02 -2.710845088586211205e-03 -1.220711693167686462e-01 1.755503751337528229e-02 -4.428680054843425751e-03 2.977879345417022705e-02 2.980820648372173309e-02 -6.103295460343360901e-02 1.588999107480049133e-02 7.163878064602613449e-03 5.711432173848152161e-02 1.448103226721286774e-03 -2.983339689671993256e-02 -1.717400252819061279e-01 2.811001800000667572e-02 -5.770926550030708313e-02 4.796110838651657104e-02 -5.417585372924804688e-02 1.232438953593373299e-03 1.003807932138442993e-01 2.786662243306636810e-02 5.438549444079399109e-02 -2.191841602325439453e-02 1.038040667772293091e-01 1.769558154046535492e-02 -8.592192083597183228e-02 3.191118314862251282e-02 -1.137741953134536743e-01 4.929502680897712708e-02 5.357558280229568481e-02 6.361056864261627197e-02 2.409155294299125671e-02 8.829424157738685608e-03 1.279239449650049210e-02 -2.006316035985946655e-01 9.028068929910659790e-02 -9.921152889728546143e-02 1.683401130139827728e-02 7.117181271314620972e-02 -1.482123881578445435e-01 2.142323367297649384e-02 -6.103907153010368347e-02 2.408300712704658508e-02 1.162159964442253113e-01 -2.225708775222301483e-02 -6.047390028834342957e-02 -2.301849424839019775e-02 1.800058037042617798e-02 6.859841197729110718e-02 4.387519508600234985e-02 -4.718935117125511169e-02 -8.121222257614135742e-02 5.830494314432144165e-02 7.221864163875579834e-02 1.082659233361482620e-03 3.262064233422279358e-02 -3.671858832240104675e-02 4.077768325805664062e-02 4.281259328126907349e-02 7.832478731870651245e-02 7.074537128210067749e-02 1.736200600862503052e-02 3.181622922420501709e-02 -6.992127746343612671e-02 5.714134126901626587e-02 2.795912325382232666e-02 -4.819883778691291809e-02 -1.751075088977813721e-01 3.605328127741813660e-02 6.411924958229064941e-02 -9.151188656687736511e-03 -1.863728463649749756e-02 -1.630610227584838867e-02 3.677858039736747742e-02 -1.615679711103439331e-01 -1.224035322666168213e-01 -7.821153849363327026e-03 1.791858486831188202e-02 -1.056281180353835225e-04 -7.117711752653121948e-02 1.798927783966064453e-02 -7.885646075010299683e-02 -1.111496891826391220e-02 4.392683133482933044e-02 5.949401482939720154e-02 8.979422599077224731e-02 7.308106869459152222e-02 4.288756102323532104e-02 7.028310559689998627e-03 9.542787075042724609e-02 -5.456269532442092896e-02 4.935360327363014221e-02 4.214495792984962463e-02 2.745808474719524384e-02 -3.300665691494941711e-02 -1.473333239555358887e-01 -2.140740118920803070e-02 -9.994032233953475952e-02 -1.976891607046127319e-01 3.581629320979118347e-02 -2.765862457454204559e-02 1.355760544538497925e-02 -7.758685853332281113e-03 1.449951156973838806e-02 -6.767424196004867554e-02 -1.300117559731006622e-02 -4.827466234564781189e-02 -7.097494602203369141e-02 -3.384335339069366455e-02 4.257404059171676636e-02 -1.140828505158424377e-01 -1.087304726243019104e-01 5.987814627587795258e-03 -3.107818588614463806e-02 -6.599064450711011887e-03 -6.661127507686614990e-02 4.683836176991462708e-02 -1.035636439919471741e-01 -2.419980615377426147e-02 -1.478318274021148682e-01 3.308457788079977036e-03 1.499606017023324966e-02 -2.072833180427551270e-01 2.458765543997287750e-02 5.726040340960025787e-03 -7.218650542199611664e-03 4.546274244785308838e-02 -4.840328171849250793e-02 8.276739716529846191e-02 -4.675188660621643066e-02 2.692740224301815033e-02 7.569769024848937988e-02 -9.755036793649196625e-03 -5.057321861386299133e-02 -2.602536045014858246e-02 -3.205665200948715210e-02 2.447379939258098602e-02 8.216501027345657349e-02 -2.169819362461566925e-02 -1.558853400638327003e-04 -5.635907873511314392e-02 5.950305610895156860e-02 -2.273446135222911835e-02 -1.210040375590324402e-01 -5.275015905499458313e-02 3.296025097370147705e-02 -3.552610799670219421e-02 9.744145907461643219e-03 -3.836444392800331116e-02 -7.479157298803329468e-02 -3.823583945631980896e-02 -4.199231788516044617e-02 -1.159144639968872070e-01 4.697065055370330811e-02 1.074096094816923141e-02 -3.906374052166938782e-02 -5.460518598556518555e-02 4.358855076134204865e-03 -6.405366212129592896e-02 -6.199238449335098267e-02 -1.928708702325820923e-02 -4.819178953766822815e-02 2.707898849621415138e-03 5.353213474154472351e-02 6.492478400468826294e-02 -9.931667707860469818e-03 -1.334743108600378036e-02 -4.332943353801965714e-04 5.676878616213798523e-02 6.471425760537385941e-03 7.385998219251632690e-02 1.549704093486070633e-02 -3.370480239391326904e-02 3.378424048423767090e-02 -1.199543103575706482e-01
1.002805531024932861e-01 1.788518764078617096e-02 -3.152020275592803955e-02 -1.528085861355066299e-02 -4.365113377571105957e-02 8.713168650865554810e-02 -2.192385308444499969e-02 -2.406203886494040489e-03 -7.263652980327606201e-02 6.090969592332839966e-02 -3.035584650933742523e-02 -9.951563179492950439e-02 -6.734620034694671631e-02 1.864625327289104462e-02 6.199317052960395813e-02 7.840309292078018188e-02 7.363405823707580566e-02 -1.085003763437271118e-01 6.204840168356895447e-02 9.726133942604064941e-02 4.281943663954734802e-02 -2.211199607700109482e-03 2.874407172203063965e-02 -1.629449129104614258e-01 -8.264095336198806763e-02 1.325803156942129135e-02 6.883530318737030029e-02 -3.587307035923004150e-02 1.832301728427410126e-02 -8.107250556349754333e-03 -2.478346042335033417e-02 2.765752188861370087e-02 6.659471895545721054e-03 -4.332827869802713394e-03 -4.779374226927757263e-02 1.395724155008792877e-02 2.041010884568095207e-03 5.048631876707077026e-02 3.828287497162818909e-02 -4.047140479087829590e-02 -5.419674515724182129e-02 -5.140916258096694946e-02 -4.198189359158277512e-03 -8.244355767965316772e-02 2.029102481901645660e-02 1.925266534090042114e-02 -4.399912059307098389e-02 2.167710661888122559e-02 -2.472053095698356628e-02 5.282380059361457825e-02 -2.150955051183700562e-02 -1.183756068348884583e-01 2.356125414371490479e-02 1.019667647778987885e-02 -3.839537128806114197e-02 -5.778073891997337341e-02 -4.168115090578794479e-03 5.309717264026403427e-03 -6.345734745264053345e-02 3.598653012886643410e-03 -7.616058737039566040e-02 -1.615098863840103149e-02 -1.637668465264141560e-03 -4.080513957887887955e-03 -5.913652013987302780e-03 6.904656440019607544e-02 2.124244533479213715e-02 -4.816789587493985891e-04 5.164464190602302551e-02 -3.713400661945343018e-02 -7.367408368736505508e-03 -8.812172710895538330e-02 -9.238414466381072998e-03 5.412436090409755707e-03 1.903906464576721191e-02 5.236386880278587341e-02 -7.706974446773529053e-02 -1.534899463877081871e-03 -5.953279137611389160e-02 1.115201041102409363e-02 -2.194488607347011566e-02 -6.221108883619308472e-02 1.045542284846305847e-01 -8.798946440219879150e-02 -5.835328996181488037e-02 6.635821610689163208e-02 1.618052087724208832e-02 -2.253406308591365814e-02 -6.296871695667505264e-03 -5.805020220577716827e-03 -6.210438534617424011e-02 -1.928872056305408478e-02 2.504134178161621094e-02 7.970233261585235596e-02 -9.127768687903881073e-03 -1.738562621176242828e-02 8.952321857213973999e-02 5.414988208940485492e-06 -9.714753367006778717e-03 -1.371652930974960327e-01 1.016225889325141907e-01 4.574680642690509558e-04 7.919447869062423706e-02 -2.470077946782112122e-02 1.360127776861190796e-01 -1.078504789620637894e-02 2.612394280731678009e-02 8.333775214850902557e-03 -3.962391614913940430e-02 2.572149783372879028e-02 -9.375905245542526245e-02 2.179343067109584808e-02 3.782123327255249023e-02 3.477110341191291809e-02 -9.654410183429718018e-02 6.107195839285850525e-02 7.128889113664627075e-02 -1.328678149729967117e-02 -1.160846129059791565e-01 -4.220019653439521790e-02 -2.267488976940512657e-03 2.314971014857292175e-02 -1.583409868180751801e-02 -2.668136730790138245e-02 -1.667911745607852936e-02 -4.041029885411262512e-02 -1.527420617640018463e-02 1.229902449995279312e-02 -1.125760562717914581e-02 -5.021381378173828125e-02 -5.838286131620407104e-02 2.086982131004333496e-02 -1.082401573657989502e-01 3.387648612260818481e-02 -7.319636642932891846e-02 -4.421087447553873062e-03 3.114965930581092834e-02 -1.887052506208419800e-02 -3.172801807522773743e-02 -3.915103734470903873e-04 9.878876619040966034e-03 -2.381202392280101776e-02 -8.808774501085281372e-02 -1.841501332819461823e-02 2.392444573342800140e-02 1.159803289920091629e-02 -5.348696559667587280e-02 9.934482723474502563e-02 -2.913421392440795898e-02 -6.238568201661109924e-02 -2.439655922353267670e-02 -8.271881937980651855e-02 1.521781366318464279e-02 7.532100379467010498e-02 5.034158378839492798e-02 -1.423309743404388428e-01 -7.817035913467407227e-02 2.216214872896671295e-02 1.953106373548507690e-02 -2.718014642596244812e-02 1.029616370797157288e-01 1.645611785352230072e-02 -9.316429495811462402e-02 -9.308353066444396973e-02 3.173825144767761230e-02 -3.200570121407508850e-02 -2.633173950016498566e-02 -2.252503484487533569e-02 2.938616648316383362e-02 8.913796395063400269e-02 -3.651192039251327515e-02 1.388195995241403580e-02 -2.365550724789500237e-03 8.515474200248718262e-02 -2.501235529780387878e-02 -1.252609491348266602e-01 1.860852167010307312e-02 5.063891410827636719e-02 1.731872931122779846e-02 4.550243541598320007e-02 2.199909836053848267e-02 4.348596557974815369e-02 2.730568405240774155e-03 -5.526155233383178711e-02 -3.544206963852047920e-03 3.215439990162849426e-02 -2.241427451372146606e-02 -1.032168418169021606e-01 2.398406900465488434e-02 4.177340120077133179e-02 -9.543954581022262573e-02 -9.924775362014770508e-02 6.148150935769081116e-02 3.597731143236160278e-02 4.507106170058250427e-02 1.041472926735877991e-01 5.445730313658714294e-02 7.821549475193023682e-02 2.188964374363422394e-02 -6.148165464401245117e-02 8.463072776794433594e-02 -1.104425787925720215e-01 2.017372474074363708e-02 -1.775494217872619629e-02 8.621769025921821594e-03 3.852155804634094238e-02 -2.903571352362632751e-02 -1.036244537681341171e-02 1.059769168496131897e-01 -1.119430139660835266e-01 -1.890379376709461212e-02 -1.162331178784370422e-01 -2.652099728584289551e-02 -1.262503582984209061e-02 1.476831920444965363e-02 -7.035126537084579468e-02 -2.730063162744045258e-02 1.768426038324832916e-02 -3.786490112543106079e-02 -6.472878158092498779e-02 2.140962891280651093e-02 -4.001660272479057312e-02 -5.330373998731374741e-03 2.906021662056446075e-02 1.620315201580524445e-02 1.043943613767623901e-01 3.294209763407707214e-02 5.419300403445959091e-03 -1.624276638031005859e-01 -8.478884701617062092e-04 1.421670615673065186e-02 -1.491652987897396088e-02 3.310462459921836853e-02 -1.857379078865051270e-02 -1.203307509422302246e-01 6.692569702863693237e-02 2.745472081005573273e-02 -2.138975113630294800e-01 7.276578247547149658e-02 -2.521053515374660492e-02 5.032286047935485840e-02 1.116474810987710953e-02 1.366146723739802837e-03 -1.207034476101398468e-02 3.559220954775810242e-02 -4.228404257446527481e-03 -1.307912543416023254e-02 -1.490090228617191315e-02 4.866623505949974060e-02 9.887816756963729858e-02 -3.571501746773719788e-02 -8.116877079010009766e-02 5.831214366480708122e-04 3.499180823564529419e-02 9.487102739512920380e-03 3.291561268270015717e-03 4.750629141926765442e-02 -7.014414668083190918e-02 1.542062312364578247e-02 -3.202832117676734924e-02 8.192523382604122162e-03 3.913750872015953064e-02 -1.019908953458070755e-02 3.889410570263862610e-02 -7.050573360174894333e-03 -1.211849823594093323e-01 -1.777185872197151184e-02 4.957811906933784485e-03 -9.568433463573455811e-02 -1.086332928389310837e-02 -1.067978888750076294e-02 -4.276466369628906250e-02 8.043072372674942017e-02 1.130401939153671265e-01 2.594117633998394012e-02 -7.317537069320678711e-02 -8.826103806495666504e-02 -1.800358295440673828e-02 6.250395625829696655e-02 -8.555524796247482300e-02 -6.195109710097312927e-02 -1.230592355132102966e-01 6.337985396385192871e-03 -3.580423770472407341e-03 3.433204814791679382e-02 -6.566648185253143311e-02 9.226175956428050995e-03 -6.821733899414539337e-03 5.787836015224456787e-02 -1.025189831852912903e-01 4.822873324155807495e-02 -1.417555361986160278e-01 -2.838817611336708069e-02 -6.266434676945209503e-03 3.070997819304466248e-02 1.046813209541141987e-03 7.386863231658935547e-03 -6.605147570371627808e-02 2.404409460723400116e-02 9.884217381477355957e-02 2.583750523626804352e-02 2.853375859558582306e-02 8.690797723829746246e-03 2.841214649379253387e-02 1.730109564960002899e-02 -9.845080226659774780e-02 -9.013482183218002319e-02 -5.069495365023612976e-02 -6.003652513027191162e-02 -3.223991021513938904e-02 -6.290066242218017578e-02 6.829738616943359375e-03 4.929675534367561340e-02 -1.939132437109947205e-02 1.027913857251405716e-02 2.593068405985832214e-03 1.492428034543991089e-02 -2.810855582356452942e-02 -1.681984215974807739e-02 2.271599881350994110e-02 -3.622310981154441833e-02 -1.199090406298637390e-01 2.337320707738399506e-02 -1.843379624187946320e-02 -4.325338453054428101e-02 4.138526692986488342e-02 -4.886102396994829178e-03 -5.476269125938415527e-02 -1.165903434157371521e-01 6.032286584377288818e-02 8.705078065395355225e-02 2.883240021765232086e-02 -2.244401350617408752e-02 -9.383187443017959595e-02 -5.382222589105367661e-04 -1.614179648458957672e-02 -3.733394294977188110e-02 -5.403368920087814331e-02 -2.457694383338093758e-03 1.570329256355762482e-02 -1.088211163878440857e-01 7.634297758340835571e-02 3.660440817475318909e-02 -3.804478049278259277e-02 1.079793181270360947e-02 4.799376055598258972e-02 1.592009514570236206e-02 9.565522521734237671e-02 3.170244395732879639e-02 2.338930778205394745e-02 -1.530812005512416363e-04 1.288809231482446194e-03 1.042697206139564514e-02 -4.734863061457872391e-03 1.176980137825012207e-02 -3.068796172738075256e-02 -1.800360530614852905e-02 1.504552550613880157e-03 -2.555888518691062927e-02 -4.298446327447891235e-02 1.571682468056678772e-02 -5.309512093663215637e-02 1.256329268217086792e-01 4.587025940418243408e-02 4.098181426525115967e-02 3.303075954318046570e-02 -2.492432668805122375e-02 2.622004784643650055e-02 -2.413299120962619781e-02 -9.979160968214273453e-04 -1.023617479950189590e-02 -2.421746589243412018e-02 6.749057769775390625e-02 6.848432123661041260e-02 9.062106721103191376e-03 5.950975231826305389e-03 2.036641351878643036e-02 6.733503937721252441e-02 -5.583586636930704117e-03 1.025760844349861145e-01 5.198094993829727173e-02 9.627799689769744873e-02 7.162379473447799683e-02 1.519382093101739883e-02 -7.452312391251325607e-03 -3.030585683882236481e-02 7.685222662985324860e-03 2.238878048956394196e-02 -3.414525836706161499e-02 -2.206998616456985474e-01 3.139794617891311646e-02 -1.110760681331157684e-02 -7.198408246040344238e-02 -7.768035680055618286e-02 -1.516983360052108765e-01 -3.826866671442985535e-02 -4.107166826725006104e-02 -3.754967451095581055e-02 -7.671308517456054688e-02 -6.380977481603622437e-02 1.654533743858337402e-01 -4.928842652589082718e-03 -4.620781540870666504e-02 7.034680992364883423e-02 4.878802970051765442e-02 1.255456637591123581e-02 -2.251507900655269623e-02 7.133945077657699585e-02 -3.816511109471321106e-02 -8.562109619379043579e-02 1.386667136102914810e-02 1.679256744682788849e-02 1.405957061797380447e-02 -9.099911898374557495e-03 -7.684605568647384644e-02 7.327041029930114746e-02 1.314332336187362671e-02 6.405232101678848267e-02 1.012593209743499756e-01 4.039662331342697144e-02 2.069368585944175720e-02 -7.636565715074539185e-02 2.199737727642059326e-02 4.639246314764022827e-02 6.579953432083129883e-02 -4.614143632352352142e-03 -6.426665186882019043e-02 5.332029424607753754e-03 -5.563738569617271423e-02 -4.314964637160301208e-02 -4.736528545618057251e-02 -9.008418768644332886e-02 1.518322993069887161e-02 -7.594138849526643753e-03 -3.599387407302856445e-02 -9.142946451902389526e-03 -8.105961233377456665e-02 -2.690218389034271240e-02 -4.282865673303604126e-02 4.195497557520866394e-02 5.213920492678880692e-03 -1.870784908533096313e-02 4.861678928136825562e-02 9.541953913867473602e-03 1.243350282311439514e-02 5.783522501587867737e-02 -6.949161738157272339e-02 -4.375002533197402954e-02 2.247965149581432343e-02 -9.648360311985015869e-02 1.000768505036830902e-03 2.968176268041133881e-02 5.036067962646484375e-02 -4.273673146963119507e-02 2.966623194515705109e-02 3.139934316277503967e-02 -1.184728741645812988e-02 -4.890471324324607849e-02 3.599842265248298645e-02 2.776579186320304871e-02 -3.995136916637420654e-02 1.613101363182067871e-02 1.499876379966735840e-03 4.348871484398841858e-02 -2.818343602120876312e-02 2.888529933989048004e-02 4.279374703764915466e-02 3.439560160040855408e-02 7.447191327810287476e-02 2.434387803077697754e-02 -4.330886900424957275e-02 6.027232855558395386e-02 1.610342226922512054e-02 -1.274964213371276855e-01 -1.334323436021804810e-01 9.655607491731643677e-02 5.800177156925201416e-02 -7.370783388614654541e-02 -1.996625028550624847e-02 -9.212046861648559570e-03 -4.815885797142982483e-02 4.111441783607006073e-03 2.472567185759544373e-02 3.872198611497879028e-02 -4.258831590414047241e-02 6.620731204748153687e-02 -1.298197824507951736e-02 -2.507141977548599243e-02 8.730877190828323364e-03 1.004657009616494179e-03 2.364791370928287506e-02 -2.077838964760303497e-02 1.140742283314466476e-02 5.139490589499473572e-02 4.068337380886077881e-02 1.902592554688453674e-02 1.956882141530513763e-02 -5.818388238549232483e-02 6.150512769818305969e-02 -5.082453135401010513e-04
3.910411894321441650e-02 2.339243702590465546e-02 1.113736480474472046e-01 -5.589367076754570007e-02 -6.424000859260559082e-02 3.635750710964202881e-02 2.340923063457012177e-03 1.442093215882778168e-02 8.509321510791778564e-02 -6.628625839948654175e-02 -4.949864000082015991e-02 2.204992197221145034e-04 2.398475818336009979e-02 -3.145529702305793762e-02 6.844583153724670410e-02 -5.570373311638832092e-02 4.359360039234161377e-02 -9.592086821794509888e-02 3.455204889178276062e-02 2.186335250735282898e-02 3.219761420041322708e-03 3.017022274434566498e-02 1.254934445023536682e-02 -4.836418107151985168e-02 -2.156207119696773589e-05 4.159189388155937195e-02 2.620854228734970093e-02 -6.077345088124275208e-02 6.732911337167024612e-03 1.217802520841360092e-03 3.221088647842407227e-02 -1.762417331337928772e-02 -6.776179186999797821e-03 -4.983188584446907043e-02 1.043752394616603851e-02 8.482018485665321350e-03 -2.144355885684490204e-02 -7.001096848398447037e-03 1.559012383222579956e-02 -6.068912148475646973e-02 -2.014999464154243469e-02 2.370180748403072357e-02 6.065940950065851212e-03 -8.104168623685836792e-02 4.397040233016014099e-02 4.623856022953987122e-02 4.074187576770782471e-02 -4.814764112234115601e-02 9.156762063503265381e-02 -2.899842336773872375e-02 1.147265732288360596e-01 -9.501966834068298340e-02 -5.321818869560956955e-03 -2.127926051616668701e-02 -4.940338432788848877e-02 2.666762657463550568e-02 -2.559273317456245422e-02 -7.293304894119501114e-03 5.308963730931282043e-02 2.805404737591743469e-02 1.034971326589584351e-02 -3.501815348863601685e-02 5.058973561972379684e-03 1.053847931325435638e-02 2.439183555543422699e-02 2.297109924256801605e-03 -5.601183325052261353e-02 -2.923417463898658752e-02 3.416380658745765686e-02 5.763081833720207214e-03 -3.433979675173759460e-02 2.672691829502582550e-02 2.250946359708905220e-03 7.172853220254182816e-03 7.583731412887573242e-02 -1.700892448425292969e-01 -1.968145370483398438e-03 -2.722164988517761230e-02 -4.919429123401641846e-02 -5.383525043725967407e-03 -1.134535968303680420e-01 9.854051470756530762e-02 -3.807351738214492798e-02 3.671921789646148682e-02 2.221252210438251495e-02 4.334664344787597656e-02 -2.674211189150810242e-02 -3.288120776414871216e-02 2.443372085690498352e-02 1.993818767368793488e-02 -5.267338454723358154e-02 -3.313091397285461426e-02 -4.696642514318227768e-03 3.108053281903266907e-02 -1.722545921802520752e-02 5.753708258271217346e-02 -6.523749325424432755e-03 4.552694782614707947e-02 -1.478186249732971191e-02 -1.643318124115467072e-02 5.523296445608139038e-02 1.062896754592657089e-02 -4.099685698747634888e-02 3.396750194951891899e-03 -1.267004013061523438e-01 6.157914549112319946e-02 -1.644864678382873535e-02 -1.174954418092966080e-02 -1.099728718400001526e-01 -1.242620963603258133e-02 8.588355034589767456e-02 -2.767200395464897156e-02 7.655213121324777603e-03 -5.954821407794952393e-02 -4.130125790834426880e-02 3.142987191677093506e-02 -7.061351090669631958e-02 2.901106141507625580e-03 -6.030346825718879700e-02 -7.474696729332208633e-03 -2.303037419915199280e-02 4.627596214413642883e-02 -1.263521611690521240e-01 -5.461320653557777405e-02 -4.612373188138008118e-02 -5.445907637476921082e-02 8.752970024943351746e-03 -9.393497556447982788e-02 1.084436080418527126e-03 -9.036675840616226196e-02 -1.097000669687986374e-02 -5.051346495747566223e-02 4.546147957444190979e-02 -1.176220644265413284e-02 8.897279202938079834e-02 -2.544150047469884157e-04 -1.719378493726253510e-02 1.792059466242790222e-02 -6.072544306516647339e-02 5.826333537697792053e-02 4.490093886852264404e-02 -1.873798668384552002e-02 -9.503460675477981567e-02 9.628226980566978455e-03 -3.319776430726051331e-02 1.303329918300732970e-04 5.788062885403633118e-02 4.612049087882041931e-02 3.279633820056915283e-02 -4.551468044519424438e-02 4.947462677955627441e-02 -9.479479491710662842e-02 -6.341102719306945801e-02 4.984181374311447144e-02 2.802353911101818085e-02 -3.707699477672576904e-02 1.689638756215572357e-02 4.244491085410118103e-02 -9.347102604806423187e-03 -8.395359665155410767e-02 1.559149008244276047e-02 7.106821984052658081e-02 8.454794995486736298e-03 3.085606731474399567e-02 2.667907439172267914e-02 3.834657743573188782e-02 3.613873943686485291e-02 8.978523313999176025e-03 -3.565023094415664673e-02 2.382337488234043121e-02 -9.756573289632797241e-02 -9.075208753347396851e-02 -3.156146034598350525e-03 6.665554642677307129e-02 -4.554217681288719177e-02 3.737570345401763916e-02 5.795532837510108948e-02 -3.775843605399131775e-02 -6.653915625065565109e-03 -3.389926627278327942e-03 2.594736218452453613e-02 -4.786469414830207825e-02 5.915851891040802002e-02 2.667212486267089844e-02 1.270787604153156281e-02 -1.352743357419967651e-01 -5.201822146773338318e-03 -3.945333138108253479e-02 -1.142021082341670990e-02 5.195077508687973022e-03 -2.946183271706104279e-02 -6.927384436130523682e-02 -4.500402882695198059e-02 -2.867146953940391541e-02 -1.237743496894836426e-01 -2.609613351523876190e-02 5.503287166357040405e-02 7.635873556137084961e-02 1.254048570990562439e-02 6.148357689380645752e-02 -3.830644115805625916e-02 6.361328065395355225e-02 7.859367877244949341e-02 -9.529942646622657776e-03 1.747022010385990143e-02 -4.021663591265678406e-02 -3.843674808740615845e-02 -4.028312116861343384e-02 5.036306567490100861e-03 -9.111406654119491577e-02 7.203640788793563843e-02 -3.975005820393562317e-02 -2.418164908885955811e-02 4.474728181958198547e-02 -4.494852945208549500e-02 1.063396921381354332e-03 -1.573897898197174072e-01 2.101423306157812476e-04 -3.765350580215454102e-02 5.089756101369857788e-03 1.517658308148384094e-02 -5.437466502189636230e-02 2.176431752741336823e-02 1.688821241259574890e-02 -1.002854574471712112e-02 -3.363287448883056641e-02 2.699863910675048828e-02 -4.790235776454210281e-03 -8.896922320127487183e-02 -1.670979112386703491e-01 9.509697556495666504e-02 5.847868669661693275e-05 7.062783837318420410e-02 -7.829219847917556763e-02 -7.753572613000869751e-02 -4.470145329833030701e-03 -1.029038280248641968e-01 -1.038216426968574524e-01 -6.105253472924232483e-03 3.643723577260971069e-02 -5.497293174266815186e-02 6.117987632751464844e-02 2.341048419475555420e-02 1.424714364111423492e-02 4.083947837352752686e-02 -3.953975066542625427e-02 -1.291931513696908951e-02 -8.647831529378890991e-02 -7.583755254745483398e-02 2.345060184597969055e-02 2.506157942116260529e-02 -3.359858691692352295e-02 -1.476639183238148689e-03 -8.290099911391735077e-03 -1.167290844023227692e-02 -9.910481423139572144e-02 -6.655130535364151001e-02 -4.509259015321731567e-03 -4.355678334832191467e-03 -6.588970776647329330e-03 7.457672618329524994e-03 -7.150406017899513245e-03 3.833107650279998779e-02 -3.787209047004580498e-03 2.083694376051425934e-02 4.983862116932868958e-02 -5.432473123073577881e-02 -9.333392977714538574e-02 -6.657444685697555542e-02 -2.994346618652343750e-02 4.134024679660797119e-02 5.312730791047215462e-04 -9.165026131086051464e-04 -9.141131490468978882e-02 1.831014454364776611e-02 2.763927727937698364e-02 -1.785953901708126068e-02 6.434756517410278320e-02 -4.727189242839813232e-02 -3.553710132837295532e-02 -3.489313274621963501e-02 -7.465810049325227737e-03 4.883561050519347191e-04 -2.506851451471447945e-03 3.443877026438713074e-02 6.398140639066696167e-02 -2.490678988397121429e-02 2.065898291766643524e-02 -4.551606997847557068e-02 -5.422800313681364059e-04 1.199572533369064331e-02 -5.377280339598655701e-02 -8.710010349750518799e-02 3.866137191653251648e-02 7.979418337345123291e-02 2.665610983967781067e-02 -8.663114160299301147e-02 7.820025086402893066e-03 1.932187564671039581e-02 -1.724733039736747742e-02 -1.145223528146743774e-01 -4.246147722005844116e-02 6.934105604887008667e-02 -6.170666590332984924e-02 -1.243784725666046143e-01 -8.198776841163635254e-02 3.560702130198478699e-02 1.221839040517807007e-01 -5.734019726514816284e-02 -6.749963760375976562e-02 4.206962883472442627e-02 8.632062003016471863e-03 6.051964126527309418e-03 -5.831359885632991791e-03 -4.042984545230865479e-02 -1.455206517130136490e-02 9.694272652268409729e-03 4.183581098914146423e-02 6.925274431705474854e-02 1.806933619081974030e-02 3.345549572259187698e-03 -3.210034221410751343e-02 -7.421059161424636841e-02 3.447175770998001099e-02 -9.318756870925426483e-03 1.557991746813058853e-02 -1.739463582634925842e-02 1.000731345266103745e-02 -4.810053482651710510e-02 -4.803598672151565552e-02 -3.007070720195770264e-02 -2.654819749295711517e-02 -3.581156954169273376e-02 -1.473360322415828705e-02 -3.720627631992101669e-03 -5.202676728367805481e-02 7.664652168750762939e-02 -5.325132608413696289e-02 -5.746158584952354431e-02 -5.661721900105476379e-02 5.007356032729148865e-02 -8.296082168817520142e-02 1.923031732439994812e-02 6.738753523677587509e-03 2.281954698264598846e-02 3.396036103367805481e-02 -7.080002874135971069e-02 9.843983501195907593e-02 -4.283300414681434631e-02 3.362958133220672607e-02 -7.716812938451766968e-02 5.064829066395759583e-02 8.124972879886627197e-02 -1.671260446310043335e-01 2.228027768433094025e-02 1.608951389789581299e-02 4.446442052721977234e-02 5.297168623656034470e-03 5.234540998935699463e-02 3.349278494715690613e-02 7.796338293701410294e-03 3.913439065217971802e-02 2.959080412983894348e-02 2.147088013589382172e-02 -6.314743310213088989e-02 1.624702475965023041e-02 -4.459301999304443598e-04 3.231880441308021545e-02 -6.681973487138748169e-02 -4.352487251162528992e-02 -1.455445438623428345e-01 4.465220123529434204e-02 6.331872195005416870e-02 2.889042533934116364e-02 -2.557566389441490173e-02 5.771920550614595413e-03 -3.285763040184974670e-02 -1.346670389175415039e-01 -7.754193991422653198e-02 1.637509651482105255e-02 9.559902362525463104e-03 -2.113550901412963867e-02 3.489044960588216782e-03 1.882820390164852142e-02 -5.400990694761276245e-02 -1.442461907863616943e-01 7.486847788095474243e-02 5.374380946159362793e-02 3.098825924098491669e-02 -2.832182683050632477e-02 2.002675458788871765e-02 -5.522514879703521729e-02 -1.077135205268859863e-01 -4.682288691401481628e-02 1.038407906889915466e-02 4.176459461450576782e-02 2.092523314058780670e-02 1.676166616380214691e-02 2.642823010683059692e-02 7.992624491453170776e-02 -2.811752632260322571e-02 3.572868928313255310e-02 9.339017560705542564e-04 1.615096931345760822e-03 -7.623409386724233627e-03 2.405291609466075897e-02 -4.025320336222648621e-02 1.346828695386648178e-02 -8.398228324949741364e-03 -1.393985748291015625e-01 4.253986105322837830e-02 3.259916976094245911e-02 2.118892036378383636e-02 -4.062072560191154480e-02 4.710929468274116516e-02 4.868791438639163971e-03 2.850113809108734131e-02 1.460747886449098587e-02 -1.845294237136840820e-02 8.145122975111007690e-02 8.006783574819564819e-02 -5.865090712904930115e-02 6.299393624067306519e-02 -1.129463687539100647e-01 1.019035503268241882e-01 -5.881871562451124191e-03 -8.055878803133964539e-03 -6.926383823156356812e-02 2.363417670130729675e-02 -6.922105327248573303e-03 4.698600992560386658e-02 -5.004645138978958130e-02 7.928670197725296021e-02 -2.774220146238803864e-02 -1.528735924512147903e-02 -6.936987396329641342e-03 -4.988896846771240234e-02 3.041299805045127869e-02 5.735993012785911560e-02 -1.561846584081649780e-02 9.741894900798797607e-02 -5.241516232490539551e-02 -9.575151652097702026e-02 -2.255164831876754761e-02 1.482397783547639847e-02 -7.336729019880294800e-02 -2.274172194302082062e-02 -8.620776981115341187e-02 -1.527522597461938858e-02 6.902625411748886108e-02 1.534538250416517258e-02 1.611217297613620758e-02 8.633352071046829224e-02 -1.996587775647640228e-02 -7.190248370170593262e-02 -1.133175828726962209e-04 -8.530902117490768433e-02 -6.027768179774284363e-02 4.772951826453208923e-02 -8.851393125951290131e-03 5.931515619158744812e-02 -6.431625783443450928e-02 -6.164686009287834167e-02 5.772108584642410278e-02 3.413140773773193359e-02 1.901090517640113831e-02 3.176577389240264893e-02 7.373693585395812988e-02 4.493607208132743835e-02 6.745198275893926620e-03 1.465625409036874771e-02 8.944538980722427368e-02 2.149381302297115326e-02 -8.471482247114181519e-02 2.167135663330554962e-02 -2.316557615995407104e-02 -9.597446024417877197e-02 -4.353815317153930664e-02 6.137064471840858459e-02 -1.309802476316690445e-02 4.456070065498352051e-02 3.885172307491302490e-02 2.672676742076873779e-02 -1.365327741950750351e-02 -1.185836568474769592e-01 -2.755448967218399048e-02 2.321897074580192566e-02 -9.465091861784458160e-03 6.280316412448883057e-02 -2.144363895058631897e-02 1.671014167368412018e-02 2.898134104907512665e-02 -5.639387294650077820e-02 -1.957952231168746948e-02 4.293929040431976318e-02 -1.511479727923870087e-02 5.758038535714149475e-02 -5.661828815937042236e-02 -3.815388539806008339e-03 2.418005280196666718e-02
-3.320707008242607117e-02 -5.851958412677049637e-04 7.521537691354751587e-02 -3.303584083914756775e-02 5.409510061144828796e-02 -1.087783053517341614e-01 1.189499907195568085e-02 -1.010629460215568542e-01 2.231076173484325409e-02 1.839544740505516529e-03 -7.646424323320388794e-02 -3.083748184144496918e-02 5.745533481240272522e-02 1.158140040934085846e-02 -6.672248989343643188e-02 -6.813663989305496216e-02 -1.072446815669536591e-02 5.046526342630386353e-02 -5.621089041233062744e-02 -6.965029239654541016e-02 1.877159625291824341e-02 3.930402547121047974e-02 1.656153053045272827e-02 -2.544121816754341125e-02 5.747240409255027771e-02 3.455374017357826233e-02 -1.293167024850845337e-01 -1.018035858869552612e-01 -2.902716211974620819e-02 -8.762669749557971954e-03 -2.214801125228404999e-02 1.628598757088184357e-02 4.766240715980529785e-03 -4.100349545478820801e-02 -1.343341916799545288e-01 2.995375543832778931e-02 -9.916501119732856750e-03 1.767324749380350113e-03 -4.347959184087812901e-04 1.644143648445606232e-02 7.144576311111450195e-02 1.110192686319351196e-01 3.067903965711593628e-02 4.278414696455001831e-02 -1.611139327287673950e-01 -2.779671549797058105e-02 3.073998540639877319e-02 4.183335229754447937e-02 3.494974970817565918e-02 4.295933619141578674e-02 -1.322737932205200195e-01 1.347254663705825806e-01 -4.444162175059318542e-02 -7.601082324981689453e-02 -3.134231269359588623e-02 -4.347443953156471252e-02 9.750719182193279266e-03 1.312372181564569473e-02 -2.031686156988143921e-02 -2.857844159007072449e-02 -2.040318101644515991e-01 3.854282945394515991e-02 2.725228108465671539e-02 -7.171946018934249878e-02 1.053494773805141449e-02 -9.687692672014236450e-02 5.472743511199951172e-02 -8.916531689465045929e-03 -8.892950415611267090e-02 -7.536783069372177124e-02 -3.658936591818928719e-03 7.336313277482986450e-02 8.767880499362945557e-03 -3.513240441679954529e-02 -7.912205904722213745e-02 5.737196654081344604e-02 -3.441614285111427307e-02 1.800778787583112717e-03 -2.687524445354938507e-02 -2.662761695683002472e-02 2.968833968043327332e-02 -5.605510994791984558e-02 2.559422701597213745e-02 -5.520335957407951355e-02 7.054147869348526001e-02 -7.219684123992919922e-02 2.461169846355915070e-02 -1.627047918736934662e-02 -4.630785807967185974e-02 1.097466703504323959e-02 3.360906988382339478e-02 7.578509300947189331e-02 -3.306518495082855225e-02 -6.275670975446701050e-02 6.749618332833051682e-03 -4.702946636825799942e-03 -2.857556641101837158e-01 -8.616539090871810913e-02 -5.459138657897710800e-03 7.389481365680694580e-02 -7.303903251886367798e-02 1.039009261876344681e-02 -6.792858242988586426e-02 -1.325951069593429565e-01 -1.930374535731971264e-03 -6.075524166226387024e-02 1.953521557152271271e-02 -2.568995580077171326e-02 1.494411379098892212e-02 2.592321857810020447e-02 -8.623709529638290405e-02 -2.091895602643489838e-02 1.768350973725318909e-02 3.390920907258987427e-02 1.338978484272956848e-02 4.885250702500343323e-02 -5.328248813748359680e-02 -2.547867782413959503e-02 -2.113518267869949341e-01 -5.936979502439498901e-02 5.232266709208488464e-02 -9.334529191255569458e-02 8.050231635570526123e-02 -7.939124107360839844e-02 -3.926887363195419312e-02 5.477016419172286987e-02 -6.000363826751708984e-02 -8.396014571189880371e-03 -5.616540461778640747e-02 9.047202020883560181e-02 4.686385020613670349e-02 -1.873307675123214722e-02 -2.065896801650524139e-02 -2.803237549960613251e-02 -2.737243101000785828e-02 1.198005676269531250e-02 7.390453666448593140e-02 -1.617016643285751343e-02 5.453981459140777588e-02 -3.529568761587142944e-02 5.285533145070075989e-02 -1.233641710132360458e-02 -3.383633494377136230e-02 -2.173288539052009583e-02 -9.408052265644073486e-02 -2.713986486196517944e-02 1.808562688529491425e-02 2.574788592755794525e-02 8.603296242654323578e-03 7.538951188325881958e-02 2.596353553235530853e-02 -3.049795329570770264e-02 -1.787209510803222656e-02 -5.378359183669090271e-02 1.920781284570693970e-02 6.204291060566902161e-02 -2.066338434815406799e-02 -1.458689663559198380e-02 -1.312558259814977646e-02 2.116019651293754578e-02 -1.124163940548896790e-01 -9.972508065402507782e-03 -1.140044033527374268e-01 1.430201809853315353e-03 1.373711414635181427e-02 3.954055532813072205e-02 2.067074738442897797e-02 -1.041688472032546997e-01 -9.801247157156467438e-03 -1.456156671047210693e-01 4.179416224360466003e-03 -6.619430333375930786e-02 -2.183124609291553497e-02 -1.668856590986251831e-01 1.732430234551429749e-02 -2.602946758270263672e-02 -6.178343202918767929e-03 -1.931634917855262756e-02 -1.291623711585998535e-01 1.256575435400009155e-01 -4.781095683574676514e-02 6.390375643968582153e-02 -7.725241780281066895e-02 -7.386361062526702881e-02 -8.314634859561920166e-02 6.248075887560844421e-02 -2.145339176058769226e-02 1.856928691267967224e-02 1.089837960898876190e-02 -3.912579268217086792e-02 -5.729220807552337646e-02 -1.152499839663505554e-01 7.216928154230117798e-02 3.467588499188423157e-02 -1.046969890594482422e-01 -1.469649956561625004e-03 -8.068343997001647949e-02 -6.702114641666412354e-02 1.074764281511306763e-01 -1.390670612454414368e-02 5.294150486588478088e-02 -5.409146472811698914e-02 -2.018985804170370102e-03 -1.082539930939674377e-02 -1.195396706461906433e-01 -2.076606266200542450e-02 4.923195764422416687e-02 1.052973046898841858e-02 -1.567821651697158813e-01 -2.447926253080368042e-02 -4.109961912035942078e-03 -1.153691336512565613e-01 8.006966672837734222e-03 2.577057108283042908e-02 7.740531861782073975e-02 -1.873347721993923187e-02 2.671073377132415771e-02 1.847961172461509705e-02 6.342910975217819214e-02 -1.228552311658859253e-03 2.242508158087730408e-02 3.923764917999505997e-03 -3.801442682743072510e-02 3.969150409102439880e-02 3.826334327459335327e-02 1.666409894824028015e-02 1.567615941166877747e-02 2.670679427683353424e-02 -7.411982119083404541e-02 -4.408627748489379883e-03 -1.866389438509941101e-02 3.975373134016990662e-02 -3.342812508344650269e-02 5.544489249587059021e-02 6.076520681381225586e-02 -4.428395628929138184e-02 -4.137934371829032898e-02 -1.177806481719017029e-01 1.323986612260341644e-02 5.932164937257766724e-02 8.487523533403873444e-03 -3.189209476113319397e-02 -4.735224321484565735e-02 -6.101099401712417603e-02 -1.872313907369971275e-03 -4.491723328828811646e-02 -5.754969641566276550e-02 2.756945043802261353e-02 2.699276991188526154e-02 -1.512156575918197632e-01 6.258619576692581177e-02 -1.394674926996231079e-02 1.316843368113040924e-02 -3.413537889719009399e-02 -3.791511431336402893e-02 -2.963371761143207550e-02 5.740645155310630798e-02 -2.394669130444526672e-02 -4.861942678689956665e-02 -5.041875690221786499e-02 -1.391548197716474533e-02 -3.399763023480772972e-03 -1.424451638013124466e-02 -2.455993788316845894e-03 6.559580564498901367e-02 -2.173981368541717529e-01 -5.832531675696372986e-02 1.278708428144454956e-01 -8.070222288370132446e-02 5.495264008641242981e-02 2.310111559927463531e-02 2.745344536378979683e-03 -5.681025981903076172e-02 -3.538078814744949341e-02 7.312674075365066528e-03 -3.329494968056678772e-02 -2.425443939864635468e-02 -1.100955158472061157e-02 4.636372253298759460e-02 5.857268348336219788e-03 9.504821896553039551e-02 1.036835238337516785e-01 -6.026145443320274353e-02 5.119271576404571533e-02 -2.300350368022918701e-02 4.030619747936725616e-03 -3.333072364330291748e-02 -1.438768208026885986e-01 4.777404479682445526e-03 2.867820486426353455e-02 -4.787234216928482056e-02 1.073053106665611267e-02 1.417419910430908203e-01 4.774041939526796341e-03 -7.480426877737045288e-02 -1.126507576555013657e-02 -1.764023443683981895e-03 -5.254381522536277771e-02 -1.892384886741638184e-02 -2.388913035392761230e-01 8.093638718128204346e-02 -6.900051236152648926e-02 1.998164132237434387e-02 -5.142676085233688354e-02 -7.734166830778121948e-02 -5.424580350518226624e-02 1.427949871867895126e-02 -6.167394667863845825e-02 2.281830459833145142e-02 4.382740706205368042e-02 4.787492379546165466e-02 7.330634165555238724e-03 -5.933706089854240417e-02 -9.222055226564407349e-02 9.555911645293235779e-03 1.981926709413528442e-02 -9.871593117713928223e-02 -1.111163944005966187e-01 -1.227758266031742096e-02 -3.494222462177276611e-02 -5.957697285339236259e-04 -1.170515194535255432e-01 -3.767102956771850586e-02 -8.716111630201339722e-02 5.302951857447624207e-02 1.806148700416088104e-02 -1.354292966425418854e-02 -9.324041754007339478e-02 5.291981622576713562e-02 9.069319069385528564e-02 -1.601944863796234131e-02 -8.974471688270568848e-02 -1.251576282083988190e-02 3.438106738030910492e-03 -6.433469057083129883e-02 -5.451729986816644669e-03 -8.977679908275604248e-02 -1.080137044191360474e-01 3.436311706900596619e-02 -2.508361451327800751e-02 -1.686724573373794556e-01 3.922756761312484741e-02 -1.808962970972061157e-02 -5.866611003875732422e-02 -3.059351257979869843e-02 -1.803297102451324463e-01 -4.972018674015998840e-02 -3.783576935529708862e-02 -8.367072790861129761e-03 -9.865375608205795288e-02 -2.863638801500201225e-03 1.375095266848802567e-02 -1.440238207578659058e-02 3.373416140675544739e-02 -2.205227874219417572e-02 -6.944868713617324829e-02 5.401137098670005798e-02 1.101289410144090652e-02 1.442986074835062027e-02 -1.001675650477409363e-01 -3.952519502490758896e-03 -2.839950844645500183e-02 -8.611628413200378418e-02 2.421443164348602295e-02 -9.032049775123596191e-02 -1.132671535015106201e-02 9.126809984445571899e-02 -3.869350254535675049e-02 -1.972278580069541931e-02 2.247229218482971191e-02 2.915606088936328888e-02 -1.849960908293724060e-02 -5.681909993290901184e-02 -3.430030122399330139e-02 -1.645046658813953400e-02 -1.584021374583244324e-04 -8.314608037471771240e-02 -4.323054105043411255e-02 6.452774256467819214e-02 -1.571193933486938477e-01 -1.736500263214111328e-01 -9.206548333168029785e-03 -1.046220064163208008e-01 3.136242926120758057e-02 -6.400023400783538818e-02 -9.512855112552642822e-02 -1.171850636601448059e-01 -5.374823138117790222e-02 3.765107318758964539e-02 7.670726627111434937e-02 -4.254429042339324951e-02 -1.680947653949260712e-02 5.614992231130599976e-02 1.961951702833175659e-02 2.590320445597171783e-02 -1.538632661104202271e-01 2.657815441489219666e-02 -5.924485251307487488e-02 -1.853168755769729614e-02 -8.027540147304534912e-02 3.488468751311302185e-02 4.727943241596221924e-02 -8.123403042554855347e-02 3.756465390324592590e-02 1.774486713111400604e-02 -3.782781958580017090e-02 2.227738872170448303e-02 -1.049571037292480469e-01 -1.419858541339635849e-02 4.143229499459266663e-02 1.204194687306880951e-02 4.962265864014625549e-02 -1.768815331161022186e-02 3.564435057342052460e-03 3.206918388605117798e-02 -2.819521538913249969e-02 -1.117231398820877075e-01 -9.579900652170181274e-02 -1.063137426972389221e-01 -5.510795116424560547e-02 -9.261167049407958984e-02 8.189357817173004150e-03 -5.370664596557617188e-02 2.754751406610012054e-02 -3.301858901977539062e-02 1.626388356089591980e-02 9.291019290685653687e-03 -8.877487271092832088e-04 -1.875223964452743530e-02 -4.527799412608146667e-02 -2.048574388027191162e-02 -1.738112978637218475e-02 -1.268416456878185272e-02 3.652065992355346680e-02 5.469262134283781052e-03 3.881689906120300293e-02 -1.443712040781974792e-02 -4.245300590991973877e-02 -1.061053201556205750e-01 -6.156653165817260742e-02 -1.130312401801347733e-02 2.853204868733882904e-02 -1.577265560626983643e-02 -1.010326370596885681e-01 6.254628300666809082e-02 -1.074164062738418579e-01 -6.405577063560485840e-02 -5.273443832993507385e-02 1.588839478790760040e-02 3.621327131986618042e-02 2.408415824174880981e-02 -8.756768889725208282e-03 -1.171890944242477417e-01 -7.544515281915664673e-02 -4.105320945382118225e-02 -3.846877440810203552e-02 -6.133542954921722412e-02 3.783146291971206665e-02 -6.779405474662780762e-02 -2.058647572994232178e-02 7.082606106996536255e-02 2.382850646972656250e-02 -7.647117227315902710e-02 -1.072587370872497559e-01 2.637608721852302551e-02 -5.737158283591270447e-02 -4.245664179325103760e-02 3.977587446570396423e-03 -3.099700808525085449e-02 -1.237594988197088242e-03 -2.745149843394756317e-02 -7.323943823575973511e-02 -3.817087784409523010e-02 -2.651266194880008698e-02 1.419375650584697723e-02 4.868023097515106201e-03 1.038935855031013489e-01 -1.207519229501485825e-02 1.637770608067512512e-02 -4.581797868013381958e-03 -4.359737038612365723e-02 1.206224486231803894e-01 4.027996957302093506e-02 -1.717417151667177677e-03 -5.116094648838043213e-02 -2.223769947886466980e-02 -3.208529204130172729e-02 8.450794219970703125e-02 -6.286972016096115112e-02 -4.355970770120620728e-03 -3.494481369853019714e-02 -3.401324898004531860e-02 1.367294974625110626e-02 -7.838825881481170654e-02 1.299302675761282444e-04 -4.611883778125047684e-03 -6.444784812629222870e-03 -2.789579518139362335e-02 -8.101734519004821777e-02 -4.410097375512123108e-02
-3.055702336132526398e-02 6.605942733585834503e-03 6.580784171819686890e-02 3.984645754098892212e-02 5.772889405488967896e-02 -6.380748469382524490e-03 -6.295022368431091309e-02 5.646363645792007446e-02 -1.883218251168727875e-02 -7.286671549081802368e-02 -2.736484445631504059e-02 -1.032699421048164368e-01 5.599470436573028564e-02 6.492787506431341171e-03 -1.456787586212158203e-01 -7.163678109645843506e-02 -1.394324470311403275e-02 2.165272459387779236e-02 -2.856314415112137794e-03 -9.460591524839401245e-02 9.889299049973487854e-03 -3.461771085858345032e-02 2.586888708174228668e-02 6.141982972621917725e-02 -3.272617608308792114e-02 -9.080757945775985718e-02 -3.784108161926269531e-02 7.817991077899932861e-02 -2.331639267504215240e-02 5.292878020554780960e-03 -1.448642276227474213e-02 2.537019737064838409e-02 2.076350525021553040e-02 4.498958215117454529e-02 3.844312950968742371e-02 -3.535176813602447510e-02 1.348994113504886627e-02 -1.683669909834861755e-02 -8.969288319349288940e-02 2.476715296506881714e-02 -4.724143538624048233e-03 -4.846657440066337585e-02 -3.697234764695167542e-02 -7.176436483860015869e-02 9.401613846421241760e-03 3.727699071168899536e-02 1.801443635486066341e-03 -1.478229742497205734e-02 4.094546288251876831e-02 -4.790707305073738098e-02 9.721747599542140961e-03 2.101190760731697083e-02 -5.173281580209732056e-02 -5.673674121499061584e-02 2.329464256763458252e-02 8.506867289543151855e-02 -2.772566489875316620e-02 2.261107601225376129e-02 5.660892650485038757e-02 5.192415416240692139e-02 3.087430633604526520e-02 1.473376899957656860e-02 -8.984054438769817352e-03 5.627680942416191101e-02 -1.114387996494770050e-02 4.358251392841339111e-02 -9.449888765811920166e-02 -2.483761124312877655e-02 -9.405802190303802490e-02 5.505387112498283386e-02 2.860057912766933441e-02 2.517487108707427979e-02 1.666337996721267700e-02 2.531153149902820587e-02 3.574210451915860176e-03 -1.012256741523742676e-01 9.446891397237777710e-02 3.514222428202629089e-02 6.033892929553985596e-02 2.001284807920455933e-02 -8.208474516868591309e-02 -4.350718855857849121e-02 4.527203738689422607e-02 6.027896702289581299e-02 -4.091905429959297180e-02 -5.436334758996963501e-02 1.820618845522403717e-02 2.170953527092933655e-02 -2.914655581116676331e-02 -6.427362561225891113e-03 -1.270415186882019043e-01 1.989812031388282776e-02 -4.014152660965919495e-02 -2.213363768532872200e-03 6.692145764827728271e-02 -5.499010905623435974e-02 -1.635309308767318726e-02 8.892820216715335846e-03 -2.915657358244061470e-03 3.307126834988594055e-02 -8.914985507726669312e-02 -5.076711066067218781e-03 -1.510852947831153870e-02 7.989212125539779663e-02 -4.752084240317344666e-02 4.914563894271850586e-02 1.880004070699214935e-02 3.275523334741592407e-02 8.842851035296916962e-03 -5.365485325455665588e-02 -2.456495072692632675e-03 -5.210559070110321045e-02 -9.459728607907891273e-04 -1.201189979910850525e-01 5.475897714495658875e-02 2.138802036643028259e-02 4.018558561801910400e-02 1.743134483695030212e-02 5.273920670151710510e-02 -2.829766646027565002e-02 -7.424475997686386108e-02 -9.054687805473804474e-03 8.600684814155101776e-03 1.472635287791490555e-02 7.537682075053453445e-03 -4.346739128232002258e-02 4.370765760540962219e-02 3.678810084238648415e-03 -2.320802211761474609e-02 -1.755029894411563873e-02 3.175485506653785706e-02 5.453470628708600998e-03 7.196927815675735474e-02 5.438904464244842529e-02 -5.378712341189384460e-02 -2.095887251198291779e-02 -8.007730939425528049e-04 -1.084475964307785034e-01 7.982584089040756226e-02 -1.207126956433057785e-02 -3.517614444717764854e-03 2.767758630216121674e-02 3.464276343584060669e-02 2.740570344030857086e-02 2.571883983910083771e-02 9.014361537992954254e-03 -1.520677469670772552e-02 -4.316268488764762878e-02 1.047021988779306412e-02 -3.878459334373474121e-02 6.577294319868087769e-02 6.897027790546417236e-02 -7.083073258399963379e-02 -4.259334877133369446e-02 9.984130971133708954e-03 -2.951105684041976929e-02 4.834420606493949890e-02 2.387711219489574432e-02 -2.297210320830345154e-02 5.108061805367469788e-02 4.448975250124931335e-02 1.290920190513134003e-02 3.219042345881462097e-02 1.162905618548393250e-02 3.642195463180541992e-02 1.265010423958301544e-02 -3.951949998736381531e-02 5.664937198162078857e-02 -4.966872185468673706e-02 -1.138685494661331177e-01 1.051484700292348862e-02 -4.486423358321189880e-02 -8.470994420349597931e-03 6.749948859214782715e-02 1.550625115633010864e-01 5.201918259263038635e-02 3.738778829574584961e-02 3.121039457619190216e-02 3.790060803294181824e-02 3.902208805084228516e-02 -7.103700935840606689e-02 -5.266052205115556717e-03 1.196485459804534912e-01 3.830272704362869263e-02 1.872212160378694534e-03 -2.262751944363117218e-02 -6.759095191955566406e-02 6.379631906747817993e-02 -4.006678983569145203e-02 -3.181086480617523193e-02 3.771833702921867371e-02 6.603227555751800537e-02 1.870022527873516083e-02 -8.970758318901062012e-02 -1.295597758144140244e-02 -1.013168226927518845e-02 4.271418973803520203e-02 -7.495161145925521851e-02 2.377156727015972137e-02 -3.673759475350379944e-02 1.978850690647959709e-03 -7.969880476593971252e-03 1.100027710199356079e-01 5.900135263800621033e-02 2.392053790390491486e-02 -2.049580216407775879e-02 2.233536541461944580e-02 2.913958951830863953e-02 -7.675325870513916016e-02 2.108710445463657379e-02 -5.958449468016624451e-02 1.468033790588378906e-01 8.900921046733856201e-02 2.413086034357547760e-02 3.950552642345428467e-02 5.451801419258117676e-02 -9.703013300895690918e-02 -6.297913938760757446e-02 -1.660325378179550171e-02 2.727568615227937698e-03 1.620333082973957062e-02 -7.112634181976318359e-02 5.920517444610595703e-02 -4.049278423190116882e-02 4.600355774164199829e-02 -5.039931088685989380e-02 -1.501688151620328426e-03 -1.295551843941211700e-02 6.921126693487167358e-02 -1.052816882729530334e-01 -8.638536930084228516e-02 -3.861348703503608704e-02 2.885866165161132812e-02 -6.352852284908294678e-02 -1.786343008279800415e-02 -1.272930055856704712e-01 3.904196619987487793e-02 8.671796321868896484e-02 -5.317467823624610901e-02 -5.429322365671396255e-03 -2.727761492133140564e-02 2.767629921436309814e-02 -4.178734123706817627e-02 4.450920224189758301e-02 5.777461454272270203e-02 -1.776422560214996338e-02 2.239408157765865326e-02 1.043284237384796143e-01 -3.122394345700740814e-02 5.940631963312625885e-03 4.189739376306533813e-02 -1.594281010329723358e-02 -2.057946752756834030e-03 -8.885583281517028809e-02 -6.821403652429580688e-02 -7.903206348419189453e-02 -2.314880117774009705e-02 4.302958026528358459e-02 3.529421240091323853e-02 -8.284774422645568848e-02 6.128615699708461761e-03 3.109501302242279053e-02 -3.916464373469352722e-02 -5.982555449008941650e-02 -8.434823155403137207e-02 2.798625454306602478e-02 -6.153780035674571991e-03 -1.498483028262853622e-02 9.725808352231979370e-02 -1.985681988298892975e-02 -4.564694315195083618e-02 1.498626358807086945e-02 4.450351744890213013e-02 -2.825178764760494232e-02 8.030479773879051208e-03 3.619230166077613831e-02 -5.298287421464920044e-02 7.819780148565769196e-03 -7.529457565397024155e-03 4.743616562336683273e-03 -8.605192601680755615e-02 -2.848209696821868420e-04 -2.107525058090686798e-02 -6.688343733549118042e-02 -5.644808709621429443e-02 2.893023937940597534e-02 2.276458963751792908e-02 1.864651590585708618e-02 -2.553250640630722046e-02 -3.653002902865409851e-02 -2.929699979722499847e-02 -3.427562117576599121e-02 6.630782969295978546e-03 9.551610797643661499e-03 1.878106221556663513e-02 -4.532391950488090515e-02 5.396571382880210876e-02 1.063030585646629333e-01 6.583878397941589355e-02 -2.301095612347126007e-02 -6.789315491914749146e-02 4.851281177252531052e-03 -9.428350627422332764e-02 6.818790570832788944e-04 -8.460082113742828369e-02 -1.719321683049201965e-02 6.033289059996604919e-02 -6.971305236220359802e-03 5.661179497838020325e-02 2.561783231794834137e-02 8.242223411798477173e-04 -1.041570082306861877e-01 -4.839849099516868591e-02 -6.269979476928710938e-02 -4.909407719969749451e-02 -3.519866243004798889e-02 4.306795448064804077e-02 3.240928798913955688e-02 3.426999971270561218e-02 1.651911623775959015e-02 -3.331363201141357422e-02 5.118197202682495117e-02 -1.430852245539426804e-02 -1.314003672450780869e-02 3.866029903292655945e-02 -1.863718964159488678e-02 7.327232509851455688e-02 5.235877633094787598e-02 6.164148077368736267e-02 -6.696729362010955811e-02 8.818805962800979614e-02 -1.689759083092212677e-02 1.452330872416496277e-02 1.443758904933929443e-01 3.662852942943572998e-02 2.708853594958782196e-02 5.257519427686929703e-03 3.029979392886161804e-02 -1.938715204596519470e-02 -3.801474580541253090e-03 4.848598316311836243e-02 -1.297276616096496582e-01 4.250060766935348511e-03 3.144560614600777626e-03 -4.432407207787036896e-03 -8.180024474859237671e-02 -4.750224296003580093e-03 -1.529124975204467773e-01 4.890349507331848145e-02 -3.060898371040821075e-02 1.010542064905166626e-01 2.682412043213844299e-02 -4.994888603687286377e-02 -2.420226484537124634e-02 9.945537894964218140e-02 4.250935092568397522e-02 -4.120286181569099426e-02 9.915423579514026642e-03 -8.563388139009475708e-02 -3.731107711791992188e-02 -8.447772264480590820e-02 3.946937620639801025e-02 -1.022024443955160677e-04 -7.198263891041278839e-03 -5.060834065079689026e-02 2.980157732963562012e-02 -3.346135467290878296e-02 2.048571221530437469e-02 5.115871131420135498e-02 1.292863860726356506e-02 -8.689668029546737671e-02 2.859978005290031433e-02 1.574092917144298553e-02 -1.699359901249408722e-02 -5.400663614273071289e-02 2.602968737483024597e-02 -2.465516515076160431e-02 -1.533635891973972321e-02 -6.752022355794906616e-02 -1.121861636638641357e-01 -1.678052097558975220e-01 -8.353432267904281616e-02 -1.249468997120857239e-01 -9.844745695590972900e-02 4.156573861837387085e-02 -9.285796433687210083e-02 1.657111942768096924e-02 -2.117628045380115509e-02 -1.958060543984174728e-03 4.891954734921455383e-02 -2.153960429131984711e-02 3.593352064490318298e-02 1.912607997655868530e-02 -3.969097137451171875e-02 8.483700454235076904e-02 6.230835616588592529e-02 4.181492328643798828e-02 6.022646278142929077e-02 3.693725168704986572e-02 1.645435765385627747e-02 -3.607795014977455139e-02 8.256407454609870911e-03 -3.568763611838221550e-03 -4.942379519343376160e-02 3.048608545213937759e-03 1.123042777180671692e-02 -5.987932160496711731e-02 6.184714287519454956e-02 -1.103029772639274597e-02 -7.579588890075683594e-02 -7.269456982612609863e-02 -8.692534267902374268e-02 2.548155933618545532e-02 -1.201563794165849686e-02 -6.599000096321105957e-02 2.291424386203289032e-02 6.562056392431259155e-02 3.703301772475242615e-02 -6.239525228738784790e-02 -2.671669051051139832e-02 7.636738568544387817e-02 -8.842825889587402344e-02 -4.080701991915702820e-02 4.406797140836715698e-02 -2.587290853261947632e-02 9.428000077605247498e-03 1.824573054909706116e-02 8.931245654821395874e-03 5.773719400167465210e-02 5.811856687068939209e-02 4.509628936648368835e-02 3.737800940871238708e-02 2.936797961592674255e-02 5.199882015585899353e-02 -9.671401232481002808e-02 1.214336678385734558e-01 6.344523280858993530e-02 7.385567575693130493e-02 -5.381177365779876709e-02 -4.364396911114454269e-03 6.576988101005554199e-02 -8.669318258762359619e-02 -7.030407339334487915e-02 5.268904566764831543e-02 -1.527445949614048004e-02 -9.108994901180267334e-02 5.814170837402343750e-02 -3.794124349951744080e-03 2.417936921119689941e-02 5.002927035093307495e-02 1.546285953372716904e-02 1.698025129735469818e-02 -2.251735329627990723e-02 -6.614571809768676758e-02 -9.971836581826210022e-03 -3.799467533826828003e-02 1.009074822068214417e-01 -3.480681777000427246e-02 -2.572452276945114136e-02 -8.134790509939193726e-02 2.198817208409309387e-02 -7.299002259969711304e-02 -1.260047871619462967e-02 -8.613291196525096893e-03 -1.774184219539165497e-02 -9.015613794326782227e-02 -2.715635113418102264e-02 5.792385339736938477e-02 6.910791993141174316e-02 1.682562939822673798e-02 3.103454038500785828e-02 -6.811241060495376587e-02 4.251800850033760071e-02 7.385343313217163086e-02 3.089555911719799042e-02 -1.553678419440984726e-03 1.484105270355939865e-02 8.173074573278427124e-02 3.503721952438354492e-02 3.689212957397103310e-03 -2.170463837683200836e-02 -1.476803421974182129e-01 -3.446320816874504089e-02 3.536210954189300537e-02 5.581622198224067688e-02 -2.743518853094428778e-04 -1.871439046226441860e-03 4.954711720347404480e-02 7.679619640111923218e-02 2.981613203883171082e-02 3.709218651056289673e-02 5.770638585090637207e-02 -5.079268664121627808e-02 -2.164768427610397339e-02 -6.059416010975837708e-02 -1.726634651422500610e-01 4.648258909583091736e-04 -5.973707884550094604e-03 3.826965391635894775e-02 -1.400569081306457520e-02
-9.806760586798191071e-03 1.974209956824779510e-02 -4.607587680220603943e-02 4.483640193939208984e-02 8.036720007658004761e-02 -5.542315542697906494e-02 7.573776692152023315e-02 -1.543313357979059219e-02 1.322539243847131729e-02 -9.730920195579528809e-03 -1.002818271517753601e-01 3.426387161016464233e-02 -6.322579085826873779e-02 -3.812201321125030518e-02 -2.548777870833873749e-02 2.905405312776565552e-02 -1.778786629438400269e-02 -3.166414052248001099e-02 -1.317853778600692749e-01 -1.033934280276298523e-01 -3.508646413683891296e-02 4.982186108827590942e-02 4.705395177006721497e-02 1.058136485517024994e-02 1.493911445140838623e-02 1.685600355267524719e-02 -1.600165367126464844e-01 -2.094564437866210938e-01 3.511925041675567627e-02 -6.234742235392332077e-03 -2.916006743907928467e-02 2.780670300126075745e-02 -4.143255949020385742e-02 -2.061076462268829346e-01 -2.110293135046958923e-03 -3.050941601395606995e-02 -3.939395025372505188e-02 -1.007192134857177734e-01 2.917959168553352356e-02 6.635245680809020996e-02 -6.616747379302978516e-02 -4.309348762035369873e-02 3.746179630979895592e-03 -1.158291995525360107e-01 -9.368583559989929199e-02 -4.082278162240982056e-02 -2.155025675892829895e-02 -1.444704248569905758e-03 5.880220606923103333e-02 5.548929423093795776e-02 1.523516606539487839e-02 -6.174317747354507446e-02 -8.508037030696868896e-02 -4.639818146824836731e-02 7.831898517906665802e-03 8.829903602600097656e-02 1.499965935945510864e-01 1.231941394507884979e-02 -1.388752609491348267e-01 -1.934042759239673615e-02 -1.797790080308914185e-02 4.040816053748130798e-02 -2.581617794930934906e-02 1.783810148481279612e-04 6.230768933892250061e-02 -1.585575006902217865e-02 2.857837593182921410e-03 4.228890687227249146e-02 -2.443787083029747009e-02 2.318090014159679413e-02 2.090542577207088470e-02 -3.527794033288955688e-02 -5.684335902333259583e-02 -5.899392068386077881e-03 1.180197577923536301e-04 4.033925756812095642e-02 -8.461210131645202637e-02 1.058274786919355392e-02 -1.698289182968437672e-03 -5.284650623798370361e-02 7.541027665138244629e-02 2.561942115426063538e-02 -1.156913489103317261e-01 2.537988498806953430e-02 8.461873978376388550e-02 -1.165590584278106689e-01 -9.111529216170310974e-03 -3.998376429080963135e-02 -3.904967382550239563e-02 -6.397821009159088135e-02 5.590937659144401550e-02 -8.829393237829208374e-02 -2.191918343305587769e-02 -8.465402573347091675e-02 -7.731210440397262573e-02 -5.486916750669479370e-02 -1.656146943569183350e-01 -3.514055162668228149e-02 -3.616801695898175240e-03 -5.727614276111125946e-03 -4.978262260556221008e-02 5.004085600376129150e-03 -6.604376435279846191e-02 -1.029051169753074646e-01 -1.095164753496646881e-02 -5.966093763709068298e-02 -3.986541926860809326e-02 1.378902234137058258e-02 -6.853958964347839355e-02 -5.513513460755348206e-03 1.796267181634902954e-02 -1.626330465078353882e-01 7.098086178302764893e-02 -6.644300883635878563e-04 8.949009701609611511e-03 -1.047675237059593201e-01 2.284423261880874634e-02 -5.485210195183753967e-02 -5.641588568687438965e-02 -5.900086089968681335e-02 2.681767381727695465e-02 -4.573767259716987610e-02 6.051262095570564270e-02 3.230659291148185730e-02 1.262213662266731262e-02 -1.290215998888015747e-01 -1.192656159400939941e-01 3.935608640313148499e-02 3.740203008055686951e-02 -1.876506954431533813e-02 -1.973783671855926514e-01 -8.494632202200591564e-04 -1.281773298978805542e-01 -5.522813182324171066e-03 -4.670265188906341791e-04 -1.200586836785078049e-02 -4.836397245526313782e-02 -1.272733062505722046e-01 -1.344129722565412521e-02 -5.037630349397659302e-02 -2.682302892208099365e-02 9.987523406744003296e-02 -1.691257506608963013e-01 -1.004867032170295715e-01 -4.050450865179300308e-03 6.163050979375839233e-02 2.515066415071487427e-02 -1.152652800083160400e-01 -7.549081742763519287e-02 1.227461639791727066e-02 3.470868244767189026e-02 3.294858708977699280e-02 2.201119251549243927e-02 -1.441903561353683472e-01 4.812758788466453552e-02 -2.235407978296279907e-01 -6.323717534542083740e-02 -3.945399075746536255e-02 2.366845682263374329e-02 8.118215948343276978e-03 1.054062601178884506e-02 -1.642505079507827759e-02 5.481578037142753601e-02 2.174604916945099831e-03 -2.864744886755943298e-02 8.583267219364643097e-03 8.434263989329338074e-03 9.921372868120670319e-03 1.541580259799957275e-02 -2.348886430263519287e-02 -1.127964556217193604e-01 -7.069691549986600876e-03 -6.698906421661376953e-02 1.143661662936210632e-01 -1.288048923015594482e-01 -3.221639990806579590e-02 -3.798024263232946396e-03 -1.858187280595302582e-02 -1.468588709831237793e-01 2.081418409943580627e-02 6.354545708745718002e-03 6.281455606222152710e-02 7.098788022994995117e-02 -4.526324570178985596e-02 -6.419161334633827209e-03 3.452285751700401306e-02 8.549102582037448883e-03 8.859271556138992310e-02 1.668395474553108215e-02 2.043157070875167847e-02 -7.088657002896070480e-03 -2.975676208734512329e-02 -1.110401824116706848e-01 -1.397305820137262344e-02 -1.138349547982215881e-01 -6.519356276839971542e-03 -9.942290373146533966e-03 -5.659232288599014282e-02 -5.966990441083908081e-02 -6.313570588827133179e-02 -4.757906123995780945e-02 -1.028220951557159424e-01 -3.215111419558525085e-02 -1.774957403540611267e-02 2.913847193121910095e-02 9.527138620615005493e-02 4.966859892010688782e-02 -2.294536679983139038e-02 -9.536939114332199097e-02 9.115608036518096924e-02 7.876510731875896454e-03 1.335732191801071167e-01 2.450270764529705048e-02 -1.773533597588539124e-02 -1.426978260278701782e-01 5.163355171680450439e-02 -9.726813063025474548e-03 1.850697770714759827e-02 3.277033939957618713e-02 1.593940146267414093e-02 -2.059764228761196136e-02 5.411789566278457642e-02 -1.308560371398925781e-01 6.015496794134378433e-03 -4.679306969046592712e-02 -2.783137373626232147e-03 -7.012282032519578934e-03 -1.715164445340633392e-02 8.550867438316345215e-02 5.795446690171957016e-03 1.573751866817474365e-02 7.659257203340530396e-02 -1.120781451463699341e-01 6.018901616334915161e-02 -1.060326993465423584e-01 5.306595191359519958e-02 4.570090025663375854e-02 -6.963989231735467911e-03 -4.002302885055541992e-03 -3.458192944526672363e-02 6.186373159289360046e-02 -3.580234572291374207e-02 7.810919079929590225e-03 -5.238314345479011536e-02 -1.088126450777053833e-01 -4.369688779115676880e-02 5.357393063604831696e-03 5.603288300335407257e-03 -6.994916498661041260e-02 -1.099432185292243958e-01 -1.547409743070602417e-01 -1.363268047571182251e-01 -3.078657668083906174e-03 -1.060486026108264923e-02 7.949239574372768402e-03 4.111260175704956055e-03 2.201401861384510994e-03 -6.187465041875839233e-03 -5.010345485061407089e-03 3.311055153608322144e-02 1.521313004195690155e-02 -7.225398719310760498e-02 -9.706192463636398315e-02 -8.417899161577224731e-02 -8.587167412042617798e-02 4.119766131043434143e-02 2.629374526441097260e-02 2.400806359946727753e-02 1.050253659486770630e-01 -8.122202008962631226e-02 -1.415957212448120117e-01 -3.329972922801971436e-02 -9.304670244455337524e-02 3.331935778260231018e-02 -1.323100150329992175e-04 7.967583835124969482e-02 9.042447060346603394e-02 -6.875051558017730713e-02 -1.107712537050247192e-01 1.503883831901475787e-04 6.587555259466171265e-02 6.429384648799896240e-02 6.324090063571929932e-02 1.043937983922660351e-03 6.595293059945106506e-03 -4.562574625015258789e-02 -1.764269918203353882e-02 4.603278264403343201e-02 -7.380316406488418579e-02 -1.060573682188987732e-01 -4.981942847371101379e-02 2.576454356312751770e-02 -1.112283905968070030e-03 -6.591904908418655396e-02 -3.894218802452087402e-02 1.699176058173179626e-02 -1.267440170049667358e-01 -4.895253479480743408e-02 2.397848665714263916e-02 -2.814146503806114197e-02 3.611261025071144104e-02 4.656353592872619629e-02 3.051256574690341949e-02 4.358740150928497314e-02 6.472085416316986084e-02 -9.224645048379898071e-02 6.396051496267318726e-02 1.115795411169528961e-02 9.638197720050811768e-02 -2.209862694144248962e-02 -1.273417919874191284e-01 -1.630534790456295013e-02 8.669219166040420532e-02 -1.184735149145126343e-01 3.156135976314544678e-02 1.469029635190963745e-01 5.923484452068805695e-03 -3.215114818885922432e-03 -2.649409770965576172e-01 1.701525971293449402e-02 -1.270021870732307434e-02 5.548611655831336975e-02 2.980605885386466980e-02 -2.552772313356399536e-02 -8.456221222877502441e-02 2.111487463116645813e-02 -1.736116223037242889e-02 -5.518927052617073059e-02 -6.959291175007820129e-03 -8.960995823144912720e-02 -1.156177222728729248e-01 2.048146910965442657e-03 8.006750792264938354e-02 -1.729014366865158081e-01 -1.147701777517795563e-02 2.363035641610622406e-02 -5.319894105195999146e-02 2.416037209331989288e-02 2.031696215271949768e-02 -1.700980961322784424e-02 -5.837041139602661133e-02 -5.796488747000694275e-02 7.202079985290765762e-03 3.691447153687477112e-02 -4.180839285254478455e-02 -1.391706913709640503e-01 -2.501548081636428833e-02 2.268729545176029205e-02 -5.752473697066307068e-02 -3.542867302894592285e-02 -1.404817029833793640e-02 -5.962001532316207886e-02 7.255224511027336121e-03 4.332697391510009766e-02 5.020539462566375732e-02 -3.125914931297302246e-02 -1.891729049384593964e-02 2.129975520074367523e-02 -3.773622959852218628e-02 6.659009493887424469e-03 -4.416436329483985901e-02 -1.060588508844375610e-01 -2.068794965744018555e-01 -1.065315119922161102e-02 2.804089710116386414e-02 -6.409074366092681885e-02 -2.501551806926727295e-02 -8.117442578077316284e-02 -1.057124063372612000e-01 -2.708352403715252876e-03 3.183211386203765869e-02 1.488633546978235245e-02 -2.828870713710784912e-02 -4.023079946637153625e-02 -4.256018623709678650e-02 -7.918258197605609894e-03 5.444962531328201294e-02 -5.383079499006271362e-02 5.854798853397369385e-02 -8.054532110691070557e-02 -1.153292283415794373e-01 2.370651066303253174e-02 -8.813963085412979126e-02 -9.119383990764617920e-02 -1.241410300135612488e-01 1.577585376799106598e-02 4.556744918227195740e-02 2.788467705249786377e-02 -1.291123777627944946e-02 -7.269736379384994507e-02 5.120649188756942749e-02 -1.589227840304374695e-02 -6.621181964874267578e-02 -5.799297243356704712e-02 -1.300507187843322754e-01 5.122025310993194580e-02 -5.608360748738050461e-03 7.641961425542831421e-02 -6.488574296236038208e-02 4.768168181180953979e-02 -7.039135694503784180e-02 -4.329492896795272827e-02 -1.199759021401405334e-01 4.729778971523046494e-03 1.732253731461241841e-04 -4.905548691749572754e-02 3.009769693017005920e-02 3.888380527496337891e-02 7.720527797937393188e-02 -5.568765569478273392e-03 3.497272729873657227e-03 -3.745469078421592712e-02 6.823512166738510132e-02 2.357781305909156799e-02 3.395007550716400146e-02 7.185012102127075195e-02 -1.576986610889434814e-01 -1.093404889106750488e-01 6.890344619750976562e-02 -5.980258807539939880e-02 4.125431925058364868e-02 -8.753435313701629639e-02 -6.612522155046463013e-02 4.823280870914459229e-02 -5.591261386871337891e-02 -2.936274930834770203e-02 -3.673197329044342041e-02 6.487952079623937607e-03 -1.581068634986877441e-01 4.415103700011968613e-03 1.065117940306663513e-01 6.290183868259191513e-03 -2.866125106811523438e-02 2.014922164380550385e-02 9.641946852207183838e-02 8.696691133081912994e-03 5.188310146331787109e-02 -6.889139860868453979e-02 1.016585994511842728e-02 3.624721243977546692e-02 -3.106818161904811859e-02 -1.874644756317138672e-01 -2.806730568408966064e-02 -1.481156796216964722e-01 -4.449239000678062439e-02 -7.622720301151275635e-02 -1.158028393983840942e-01 -5.632984451949596405e-03 -3.669026494026184082e-02 -2.642750740051269531e-01 -3.424826264381408691e-02 -2.061851881444454193e-02 -6.985872238874435425e-02 -5.587884411215782166e-02 -5.004863813519477844e-02 2.970981225371360779e-02 -9.946781396865844727e-02 9.361039102077484131e-02 -1.747349202632904053e-01 5.072629079222679138e-02 6.149138789623975754e-03 -1.897159665822982788e-01 3.263677284121513367e-02 -4.403520375490188599e-02 -8.893395215272903442e-02 -7.721912115812301636e-03 -9.625928848981857300e-02 -1.946873366832733154e-01 -7.295995950698852539e-02 -3.170273266732692719e-03 1.005783751606941223e-01 1.205551996827125549e-01 5.319035425782203674e-02 -3.892847150564193726e-02 8.387196809053421021e-03 -5.003596842288970947e-02 -9.711665660142898560e-02 9.367918223142623901e-02 -9.541110694408416748e-02 4.896026104688644409e-03 -9.873961657285690308e-02 1.671338640153408051e-02 -1.805756241083145142e-02 6.713639944791793823e-02 6.071535125374794006e-02 -7.751254737377166748e-02 -2.678580209612846375e-02 -2.556260861456394196e-02 -5.177300423383712769e-02 -3.426974639296531677e-02 -4.616099596023559570e-02 4.070463031530380249e-02 4.018992930650711060e-02 -4.856841638684272766e-02 4.617827758193016052e-02 -5.869712308049201965e-02 3.610890358686447144e-02 -1.123545970767736435e-02 -3.079075925052165985e-02 1.180722191929817200e-01
