-1.148196682333946228e-02
3.092569485306739807e-02
3.731720894575119019e-02
1.134710460901260376e-01
1.278592795133590698e-01
1.877786032855510712e-02
-7.321731001138687134e-02
-4.572209902107715607e-03
-2.264873683452606201e-02
2.103352174162864685e-02
-5.370881408452987671e-02
-5.523553583770990372e-03
2.273316681385040283e-02
-1.867493614554405212e-02
-2.604603022336959839e-02
-1.320486217737197876e-01
-1.628225892782211304e-01
-2.505712024867534637e-02
-8.422373235225677490e-02
-9.295948594808578491e-02
-1.453965455293655396e-01
7.687312550842761993e-03
-4.463965445756912231e-02
-4.103143140673637390e-02
4.757453687489032745e-03
2.167110145092010498e-01
1.221571192145347595e-01
-1.534474194049835205e-01
1.292081326246261597e-01
2.437678538262844086e-02
1.110437065362930298e-01
-3.906075656414031982e-02
-1.437753438949584961e-01
-3.427058085799217224e-02
-3.443495929241180420e-02
-8.058641850948333740e-02
-2.742604538798332214e-02
3.042525798082351685e-02
-1.458832621574401855e-01
-3.938133269548416138e-02
1.865496635437011719e-01
-2.238998115062713623e-01
2.471884014084935188e-03
7.276220619678497314e-02
-1.358443945646286011e-01
6.582040339708328247e-02
-9.113052859902381897e-03
5.307459086179733276e-02
-4.769074544310569763e-02
1.276828050613403320e-01
-9.187856316566467285e-02
-2.139491960406303406e-02
1.570145785808563232e-02
-6.647261977195739746e-02
1.320390254259109497e-01
-6.505722552537918091e-02
8.460242301225662231e-02
3.898414596915245056e-02
-5.205269157886505127e-02
-8.565641939640045166e-02
-6.712715327739715576e-02
1.536835879087448120e-01
-1.442682296037673950e-01
-1.407259702682495117e-01
-8.913039416074752808e-02
-7.417681813240051270e-02
5.244633927941322327e-02
1.125516071915626526e-01
1.409949511289596558e-01
3.102659247815608978e-02
1.456853598356246948e-01
-1.512257941067218781e-02
-6.228754296898841858e-02
6.535259634256362915e-02
2.383668720722198486e-02
-1.559877535328269005e-03
9.591806679964065552e-02
1.866833418607711792e-01
2.921359427273273468e-02
5.108232796192169189e-02
-2.977100908756256104e-01
-1.286537647247314453e-01
1.092027649283409119e-01
-1.782708019018173218e-01
-7.627781480550765991e-02
9.062840789556503296e-02
1.905638426542282104e-01
6.288287043571472168e-02
-3.458451107144355774e-02
1.241350080817937851e-02
-1.798152625560760498e-01
-4.484751448035240173e-02
-1.209259331226348877e-01
4.021284356713294983e-02
-1.921582818031311035e-01
1.924680024385452271e-01
1.000834852457046509e-01
-6.812117248773574829e-02
8.770532906055450439e-02
4.733885079622268677e-02
2.336548119783401489e-01
-7.767038047313690186e-02
4.839879646897315979e-02
-1.257586642168462276e-03
-2.785418927669525146e-02
7.140664011240005493e-02
2.088870555162429810e-01
-8.352611213922500610e-02
1.115172654390335083e-01
4.654056206345558167e-02
-2.122596604749560356e-03
-4.363021627068519592e-02
-1.052401140332221985e-01
-1.102272868156433105e-01
-1.870951801538467407e-01
5.777438730001449585e-02
6.176336854696273804e-02
1.787057816982269287e-01
-1.281723007559776306e-02
2.575811930000782013e-02
-9.360639750957489014e-02
-3.485698020085692406e-03
1.359135806560516357e-01
2.319237440824508667e-01
7.366301119327545166e-02
-7.353369891643524170e-02
-1.764356344938278198e-02
-2.026192098855972290e-01
9.471258521080017090e-02
5.360050871968269348e-02
-2.360413596034049988e-02
-4.728102684020996094e-02
4.708507657051086426e-02
-1.258272081613540649e-01
2.447102218866348267e-01
6.683945655822753906e-02
1.074864938855171204e-01
2.900035353377461433e-03
-6.226273253560066223e-03
-1.293263733386993408e-01
1.465201824903488159e-01
-6.198805943131446838e-02
3.029049374163150787e-02
-2.353640645742416382e-02
1.114949285984039307e-01
2.268563956022262573e-01
-1.259661465883255005e-02
-1.799016743898391724e-01
3.394325077533721924e-01
-1.468812972307205200e-01
-1.063332520425319672e-02
-1.151626929640769958e-01
-1.130616068840026855e-01
-3.282051905989646912e-02
-1.283966302871704102e-01
3.333483040332794189e-01
2.637042431160807610e-03
1.086834222078323364e-01
3.723536804318428040e-02
-1.614769548177719116e-01
2.113103307783603668e-02
-8.922466635704040527e-02
6.605442613363265991e-02
-2.455640882253646851e-01
-1.222302205860614777e-02
9.482231922447681427e-03
7.364477962255477905e-02
-9.790331870317459106e-02
-8.279252052307128906e-02
1.359487473964691162e-01
-1.024780943989753723e-01
-1.525587737560272217e-01
-3.175060451030731201e-02
1.072156280279159546e-01
-1.719559729099273682e-01
3.536982834339141846e-02
1.156590804457664490e-01
1.572941988706588745e-01
8.470837958157062531e-03
-4.442276805639266968e-02
9.731595963239669800e-02
-2.285153418779373169e-01
6.458424031734466553e-02
-2.585679590702056885e-01
-2.963418513536453247e-02
1.099319159984588623e-01
1.692237332463264465e-02
-1.861514896154403687e-01
4.703580215573310852e-02
1.466121077537536621e-01
-2.478778660297393799e-01
-7.675591856241226196e-02
1.825749278068542480e-01
-1.834560632705688477e-01
2.635156810283660889e-01
-1.136316452175378799e-02
1.970941945910453796e-02
-3.654688596725463867e-02
3.789421543478965759e-02
1.824691742658615112e-01
-1.369446963071823120e-01
1.758048236370086670e-01
1.198459975421428680e-02
-1.273423135280609131e-01
-3.952555730938911438e-02
1.333848573267459869e-02
-8.130881935358047485e-02
1.239856034517288208e-01
1.957160681486129761e-01
-5.569559335708618164e-02
-1.084645614027976990e-01
2.077874727547168732e-02
-5.932406336069107056e-02
-5.421799048781394958e-02
4.456555843353271484e-02
5.342104658484458923e-02
3.160459175705909729e-02
1.405137125402688980e-02
-1.374384202063083649e-02
2.011366635560989380e-01
-2.859720215201377869e-02
-1.864668875932693481e-01
-3.155483631417155266e-03
2.129639685153961182e-02
9.889560937881469727e-02
1.688908338546752930e-01
2.206588536500930786e-01
7.980944216251373291e-02
4.255186766386032104e-02
-1.785223931074142456e-02
-7.858768105506896973e-02
-7.717298716306686401e-02
-1.561817377805709839e-01
-1.015790253877639771e-01
4.790932312607765198e-02
1.972984224557876587e-01
-4.715550318360328674e-02
-9.652537293732166290e-03
-9.549946337938308716e-02
-2.898649498820304871e-02
1.238942593336105347e-01
9.162578731775283813e-02
-1.785222254693508148e-02
6.227739155292510986e-02
1.045760139822959900e-01
-1.565455496311187744e-01
-1.130009628832340240e-02
-1.928416788578033447e-01
3.299640119075775146e-01
1.603716760873794556e-01
-1.193512603640556335e-02
-2.802671864628791809e-02
-7.746585458517074585e-02
-1.265991628170013428e-01
-1.217783913016319275e-01
1.573423594236373901e-01
-1.534631103277206421e-01
-2.457458972930908203e-01
5.378694087266921997e-02
8.414259552955627441e-02
-1.795398592948913574e-01
-2.042077481746673584e-02
1.712824851274490356e-01
7.384574413299560547e-02
2.580377738922834396e-03
-1.590890623629093170e-02
-2.138882409781217575e-03
7.173170894384384155e-02
6.110901013016700745e-03
1.284656822681427002e-01
9.379184246063232422e-02
-8.764627389609813690e-03
-1.000995188951492310e-01
5.785883218050003052e-02
1.475676745176315308e-01
1.282481551170349121e-01
7.924856990575790405e-02
-1.299414932727813721e-01
-1.500164419412612915e-01
-2.449242211878299713e-02
-1.108654811978340149e-01
-2.151748836040496826e-01
-1.454363912343978882e-01
-1.925856689922511578e-03
-1.383819282054901123e-01
1.723621487617492676e-01
-2.313400655984878540e-01
-7.608371973037719727e-02
6.566678732633590698e-02
1.316055748611688614e-02
-5.411449447274208069e-02
4.816340655088424683e-02
-6.577675044536590576e-02
4.735250025987625122e-02
-4.732072819024324417e-03
-9.585155546665191650e-02
2.745532095432281494e-01
3.717349469661712646e-02
-3.603291511535644531e-02
1.454107165336608887e-01
-1.921817064285278320e-01
3.426286578178405762e-02
-2.349703609943389893e-01
-7.715315371751785278e-02
-1.127474941313266754e-02
-1.420667022466659546e-01
3.898128494620323181e-02
2.304857224225997925e-01
6.138480454683303833e-02
2.993386983871459961e-02
1.543487422168254852e-02
-1.211158558726310730e-01
1.959451101720333099e-02
-1.718476973474025726e-02
-2.623242035042494535e-04
-1.121078804135322571e-01
-1.809822767972946167e-01
7.810118794441223145e-02
1.407309323549270630e-01
2.330979108810424805e-01
-5.029343068599700928e-02
8.989991992712020874e-02
-7.050479203462600708e-02
1.463465392589569092e-01
-1.358102858066558838e-01
-9.826347976922988892e-02
-1.998429559171199799e-02
-2.287446148693561554e-02
1.475761458277702332e-02
-4.339421540498733521e-02
-1.974296383559703827e-02
2.453853040933609009e-01
-2.648211419582366943e-01
7.453121244907379150e-02
-2.693167328834533691e-01
-5.384956300258636475e-02
-1.624183058738708496e-01
1.105910763144493103e-01
-3.140488266944885254e-02
-1.562013477087020874e-01
-3.014727830886840820e-01
-4.927192628383636475e-02
5.538623407483100891e-02
-1.077871322631835938e-01
1.936652213335037231e-01
-1.573845595121383667e-01
-2.796776294708251953e-01
-6.863783299922943115e-02
8.530522882938385010e-02
7.203235477209091187e-02
9.561642259359359741e-02
5.139809474349021912e-02
5.637772008776664734e-02
-4.741613939404487610e-02
1.564122587442398071e-01
-1.673822999000549316e-01
-1.842594519257545471e-02
4.020013287663459778e-02
-4.320384562015533447e-02
7.692746073007583618e-02
-9.271782822906970978e-03
-2.070620507001876831e-01
1.679240614175796509e-01
1.516668498516082764e-01
8.137965202331542969e-02
9.944797307252883911e-02
-7.234837114810943604e-02
-7.835504412651062012e-02
-2.769795656204223633e-01
-1.398671790957450867e-02
3.627890720963478088e-02
1.162213385105133057e-01
1.113785877823829651e-01
-3.881604596972465515e-02
1.053259223699569702e-01
1.691752672195434570e-01
-1.496137827634811401e-01
1.770192570984363556e-02
9.019663184881210327e-02
-1.639816910028457642e-02
-1.304924637079238892e-01
-4.940081853419542313e-03
-1.764593422412872314e-01
-6.455169618129730225e-02
-1.061426699161529541e-01
-1.363357454538345337e-01
-1.047451496124267578e-01
1.213984191417694092e-01
3.990649059414863586e-02
-2.996060810983181000e-02
1.121850088238716125e-01
6.733496673405170441e-03
1.679269373416900635e-01
-3.268805146217346191e-02
-4.300710558891296387e-02
-7.976669073104858398e-02
9.626598656177520752e-02
1.096000745892524719e-01
-2.305515706539154053e-01
1.034490317106246948e-01
-1.172186657786369324e-01
2.548319101333618164e-01
-1.585888266563415527e-01
-8.503320068120956421e-02
-2.273330837488174438e-01
-1.630329340696334839e-01
6.080696359276771545e-02
-3.446368277072906494e-01
-3.955062851309776306e-02
4.257601685822010040e-03
-1.672029644250869751e-01
-4.119303449988365173e-02
2.464573085308074951e-02
-2.752428352832794189e-01
2.127927839756011963e-01
3.903106600046157837e-02
-3.458041325211524963e-02
-7.828965038061141968e-02
1.698934733867645264e-01
-1.433443725109100342e-01
3.557769209146499634e-02
2.084726840257644653e-01
-2.304684966802597046e-01
-1.212654560804367065e-01
-7.607129216194152832e-02
-9.286854416131973267e-02
-1.706270575523376465e-01
2.750637531280517578e-01
-2.467513829469680786e-01
-1.342501044273376465e-01
8.765351772308349609e-02
1.101601570844650269e-01
2.073840424418449402e-02
-1.239224672317504883e-01
2.675515413284301758e-01
3.335519134998321533e-02
4.210251197218894958e-02
-1.433247476816177368e-01
-3.899293765425682068e-02
7.884813100099563599e-02
-1.707834750413894653e-01
-3.051447309553623199e-02
-1.166603192687034607e-01
-9.115550667047500610e-03
2.611925005912780762e-01
-1.997733414173126221e-01
4.626692831516265869e-02
1.301884651184082031e-01
-4.769567251205444336e-01
7.397264987230300903e-02
-1.423382610082626343e-01
-1.278940774500370026e-02
-6.298881489783525467e-03
-8.456301689147949219e-02
-3.271482512354850769e-02
2.835720032453536987e-02
-2.191611798480153084e-03
-4.290140420198440552e-02
9.326459839940071106e-03
1.184558961540460587e-02
9.130531549453735352e-02
-4.961828142404556274e-02
1.192629896104335785e-02
-2.419666945934295654e-02
4.095144942402839661e-02
-7.988535612821578979e-02
9.062060713768005371e-02
-2.291761189699172974e-01
-5.482702516019344330e-03
1.399410050362348557e-02
7.688385248184204102e-02
-4.700406920164823532e-03
-1.237405184656381607e-02
-2.103333547711372375e-02
-8.449359796941280365e-03
1.697445064783096313e-01
6.941194646060466766e-03
-5.493854358792304993e-02
3.507119044661521912e-02
4.954974353313446045e-02
1.495978534221649170e-01
-1.359773799777030945e-02
1.154451072216033936e-01
1.615536063909530640e-01
5.043552070856094360e-02
1.386957168579101562e-01
1.400499511510133743e-02
9.844070300459861755e-03
1.148726046085357666e-02
3.362478688359260559e-02
7.824651896953582764e-02
6.509449332952499390e-02
5.298260971903800964e-02
9.559983015060424805e-02
-1.605557501316070557e-01
1.141444519162178040e-01
-8.221311122179031372e-02
-9.385797195136547089e-03
3.684894740581512451e-02
-9.069086611270904541e-02
